2.914335439641035919e-16,-7.497979296796727922e-03,8.268289763585096042e-03,1.592178230147511808e-03,-4.067235422108156362e-04,1.332974036329901898e-02,1.403436937592181591e-02,8.225317390531188336e-03,5.936091989882975178e-03,-1.536078328032702833e-02,3.706986525073958927e-03,4.818893053699091489e-04,-7.704750082295867830e-03,-5.376412732985724752e-03,-5.592374309431463741e-04,1.523128677132376541e-03,-1.479948663805347175e-02,7.776775107558593636e-03,-6.981234476667801808e-03,1.003856838103916321e-02,5.408235160173781308e-03,4.884648425607512889e-04,3.682743000011090562e-04,2.140801772874678655e-04,-1.324878454481703827e-03,4.311475486337416896e-03,3.828498833818423652e-03,3.449976209948468764e-03,-2.332192139766750549e-03,-7.871128802316898487e-03,-4.220794134500938100e-03,5.970148931862845343e-03,4.342536204167543254e-03,-1.018024488888964567e-02,-1.421806431914917485e-02,-2.300484678631981549e-03,-1.565159102822829672e-03,-5.603332013726914501e-03,-1.930457071592717871e-03,4.608474056094801104e-03,1.954830761004799390e-03,1.064026603755956202e-02,-2.782958299074732300e-03,-6.998148184298439399e-03,-8.205255832179573355e-04,7.078083849393988942e-03,7.681078882881358337e-03,-3.612654566210959928e-03,-1.951620058156864138e-03,-5.645657652036029442e-03,-6.628123634779701547e-03,-1.295736188831833266e-02,-9.028099101852406216e-04,2.051174264675136418e-04,-7.380555199539394137e-03,-2.585380568724060871e-03,1.537375430709218621e-03,2.595592691073598385e-03,-1.141322474464199523e-02,-4.486983539206235161e-03,-4.392585530990695923e-03,-1.726006190140178323e-03,-6.257681266976056894e-03,3.392287600644284216e-03,-6.756525976528337998e-04,5.517293534919347903e-03,-3.071546101829255616e-03,-4.916642634344309433e-03,1.398131764724434845e-02,2.161932238807887617e-03,-5.252795808151864429e-04,-8.579230764503981144e-03,-3.208216414845052687e-03,7.164372469950822629e-04,-1.602288556601003458e-03,4.942392130107197031e-03,2.979841159804833429e-03,3.584728912878495152e-03,-2.190273934347377206e-03,8.113701875581717446e-04,2.501141948178323745e-03,8.000182826236230688e-04,6.389578599311756396e-04,2.354366718761145318e-03,3.460129647522150204e-03,4.317576012061372353e-04,-2.745755058418432749e-03,-1.114111299149838155e-02,-7.271522845280486980e-04,-4.696664806134870362e-04,1.872323989865785866e-03,4.989453847680947601e-03,-4.116319124058775633e-03,3.065153181211073639e-03,-4.331223421507464713e-03,-4.527685748076960663e-03,4.056614714577076383e-03,-7.290551567250659788e-03,-3.242243027881798988e-03,-8.410952290431409142e-03,-2.593207438071690185e-03,-1.020151678172525472e-02,2.320049176519259088e-03,4.035247287563564593e-03,9.753732841716329649e-03,-3.902798292004617826e-03,-7.395733056384114212e-03,-2.806097558514338529e-03,3.156109885238175122e-03,2.370211480282509182e-04,6.192558435721091936e-03,-4.586149347860297293e-03,2.676375156762695207e-03,4.700617981840187962e-04,-3.247246547347039727e-03,-2.993944403195956342e-03
-7.497979296796612562e-03,-1.602102224401693842e-17,-6.362956182599799337e-03,4.685561791161923714e-03,-7.034379697795361749e-03,1.106145537687014272e-03,1.529745665950160011e-02,1.131108727870347788e-03,3.997859063824447771e-03,-7.232021602830286493e-04,6.773511868167827847e-03,-4.896048545626425184e-03,-9.450862422532874119e-03,6.323386028357234380e-03,-3.480099802272494484e-03,1.253750088167020910e-02,1.089071137201371928e-02,4.531796652225092772e-03,6.461965783938452418e-03,7.235448386442739147e-03,1.985744437342083779e-02,9.536854846672101343e-05,1.264168590876103143e-02,7.218149866374611034e-03,-4.950825817137001136e-03,5.070552001489830700e-04,-6.476692546280709076e-03,4.804696129588652970e-03,-2.949948092204339196e-03,-5.835864324947275319e-03,6.421127747595884935e-03,5.084079117095909386e-03,1.543503979114952719e-02,-1.002668943645614735e-04,-1.319340237387616604e-02,-7.239031372489140165e-03,6.988472027222478525e-03,-6.054013737951376671e-03,-5.037239014688921733e-03,1.230155667129344439e-02,5.860990191248940245e-03,4.872382870940909425e-03,-5.123671946678327524e-03,8.727453034856114122e-03,-1.160951148340052391e-03,-1.164236127288240845e-03,1.905616442971428369e-03,-2.764866752270838009e-03,8.944686518457874158e-03,5.550052140575250856e-04,-2.336727304368606956e-03,-8.006698454800575265e-03,-3.514064630225133701e-03,8.148182633705366301e-03,-7.661043147235627529e-03,-5.242622740802948232e-03,2.766086420638827655e-03,-2.420768451100939163e-05,-7.509702073084038865e-03,-6.646538120466588540e-03,1.302864911865054751e-03,1.171958090410676542e-02,-9.054689438915356631e-04,4.256047740321851347e-04,5.280908122601120185e-03,7.907855341804066046e-03,1.283760628064121436e-03,-7.714573003746900970e-04,1.629510277541983132e-02,-4.458011543523066403e-03,-8.610955951917643666e-03,-2.057672381650472483e-03,6.033959298894920730e-04,2.044996988324842419e-03,4.383655614511486158e-03,1.370745320084822833e-02,6.076064355860865893e-03,9.811616958722379697e-03,1.978838775663007039e-03,1.587031650199870973e-03,1.201833489713839166e-02,5.513851439607139054e-03,5.154823724607350902e-03,3.486045620096684186e-03,5.958841327541399696e-03,7.601506696194245544e-03,-1.264035550012063830e-03,-9.718731339893892096e-03,-3.625758725095407087e-04,8.907425543912949467e-04,4.792526979187880162e-03,3.797567912450059043e-03,6.588629259853728739e-04,-3.253380279057569748e-03,-1.266200411904201163e-03,-3.080075728765021680e-03,2.498450779276623415e-03,-8.466298369619268491e-04,5.238067813028979107e-03,7.539734453309698131e-05,4.662101770278484318e-04,-6.154834288970644808e-03,1.288777191948472373e-04,6.083725417690795043e-04,-2.780975085413639469e-03,-6.459453568580757546e-03,-5.932849117519378365e-03,5.514085360693917609e-04,-2.440048713130375281e-03,-3.368090074679289461e-03,2.791061070277391174e-03,7.649486705714855957e-03,-7.908403352788468191e-03,7.119673588697722055e-04,-4.486871176778548312e-03,2.353090579481605452e-04
8.268289763585118593e-03,-6.362956182599767245e-03,-4.815038078212583315e-19,-3.813595180569802953e-04,1.524926236446019941e-02,1.560699337398466571e-02,1.543270597994339174e-02,2.749288525386490295e-03,7.730232350647418295e-03,2.023063775874350302e-03,-3.493208403029376616e-04,-1.224456324603627640e-02,-3.589379789923635797e-03,3.290809873052853544e-03,1.838851597328890197e-03,3.553291389777027583e-03,1.633444765881435050e-03,2.972376741503768641e-03,6.219229155761367075e-03,-1.459647455024546802e-03,1.096690584835429208e-02,-2.518555248096078850e-03,-4.963557507672676852e-03,7.749458320905080154e-03,-8.044734539284030192e-03,-4.448011004781003697e-03,2.213781789471263705e-03,3.598010416991578864e-03,-9.311785635181687136e-04,-1.141035528246398326e-02,8.861038572475100211e-03,6.059351185929231359e-03,1.659107941362574206e-03,-1.409815798984991042e-02,-1.160766865690419578e-02,-4.262365017106710743e-03,8.515302322340006017e-03,6.508511759546146275e-05,8.687717518883543086e-03,8.186958199806778150e-03,1.009684624204522548e-02,-2.617686896316260073e-04,-1.544250888989857559e-02,-7.726930451104628388e-03,-1.106541725334618878e-02,-4.303876167866064681e-03,-1.512845455019855463e-02,7.001398778229318484e-03,7.199581005212812856e-03,7.038731910847459416e-03,-1.295533410423582461e-03,-8.997272400262418431e-04,7.984839521063033518e-03,3.670027261580876502e-03,-5.137228857538721216e-03,-1.096012323830774723e-02,5.185637719969118063e-03,1.283366307928871138e-02,-4.434426227336741438e-03,-1.936136833592023987e-02,-7.620862969609621708e-03,-1.637851611451706171e-02,3.632831613363618137e-03,-1.002368526719341589e-02,-4.488413480742189238e-03,2.511581894181355839e-03,6.718764624654933147e-03,8.199595034266262197e-04,5.993698902192233675e-03,-1.388288814147681932e-02,-5.626593796793114173e-03,-6.122809915898024848e-03,1.748301088511211229e-03,-1.044379740602496311e-02,-5.177187192464914427e-03,3.620100753709198579e-03,8.179145679821704651e-03,9.381303279564238637e-04,-4.423417680535463720e-03,-4.722260831611507781e-03,-4.557037586022053693e-03,-1.166249306441746389e-04,-2.352369076603326101e-03,2.173479430692291155e-03,1.402993246236098734e-03,7.854975797977566121e-03,3.979522696579253574e-03,-1.045120607089666115e-02,-7.720862675007517974e-03,-1.984160787491834332e-03,-1.378187974923157470e-02,-8.180419904716653562e-03,2.789415391711030749e-03,-3.000262624683871105e-03,-7.663184839319832353e-05,-8.743173959528058054e-04,1.927761309026268174e-03,9.583599456760689972e-03,9.111757598761899279e-03,-1.567755654451254144e-02,-1.371835845423220041e-02,-1.963414053525067496e-02,-1.070815364505245740e-02,3.716906435256787499e-04,1.927393610453279841e-03,-7.674742998969251093e-03,-5.769836910640068969e-03,4.165593042804989141e-03,-4.307826062688096744e-04,8.710661052645922095e-03,1.067882634144782725e-02,7.819420350264703196e-03,-4.829515967886404207e-03,1.744684123696411873e-03,-1.510051787821094053e-04,1.508350828717172978e-02
1.592178230147605483e-03,4.685561791161939327e-03,-3.813595180569796447e-04,-5.800138901411816286e-19,3.542854546156218136e-03,3.988153941355274471e-03,8.613760379663952874e-03,-9.650184881870395304e-03,1.745288170941487315e-03,3.535351812633045869e-04,7.309195327028896252e-03,-1.219229647146374482e-02,-7.800458573030733672e-03,1.353812066989033922e-03,-4.230788473721507417e-03,1.199142134903515532e-02,1.166357861564809931e-02,1.254349744932086418e-02,4.628189149210683306e-03,3.979595899874458637e-03,1.199311269416925355e-02,1.198051685207885981e-03,1.006488475880665256e-02,1.016000067823770794e-02,-9.253536157946685818e-04,-5.210144165184141425e-04,1.124173289876280110e-04,4.028285306324970970e-03,-5.100012325592589470e-03,-7.354118726577667589e-03,5.888817315145608577e-03,4.086020081775609825e-03,1.567160065912355515e-02,-8.447780759292431232e-03,-6.916683077844475516e-03,-7.695242670509357813e-04,1.252798680694589863e-02,-2.960249768574014194e-03,-9.792732448755774033e-05,1.188145498409744899e-02,6.403516657042137433e-03,-2.221945449477639480e-03,-1.003981700989670101e-02,-8.444820466386641564e-03,-1.553272844361036457e-02,9.081376912554884467e-04,-5.095422884986536803e-03,-4.323399089004809071e-03,7.066540521723785329e-03,2.864807061323275048e-05,-1.099294838785443672e-02,-1.450966083334251019e-02,-1.987413523293212522e-03,3.056719290276930373e-03,-1.189788803859752678e-02,-5.612595292413218376e-03,-4.428242941281832629e-03,-7.253650253547206175e-03,-6.900784474380404834e-03,-1.014096112213083191e-02,-1.739583714707910317e-03,3.510577282723095771e-03,9.695209346908522513e-04,3.342536290650820804e-03,5.247150693082030040e-03,5.566621506759207409e-03,2.248523996630058964e-03,-3.092297209656352103e-03,1.424632574398336862e-02,-5.638766444401715865e-03,-7.520430170652747832e-03,-9.551375677794859270e-03,7.235146822196785073e-03,6.710988265379830287e-03,1.081003860595578479e-02,1.816769184715291696e-02,6.064304663039333035e-03,1.133657551421258722e-02,-1.747429599668033975e-03,3.410563267158719762e-03,1.386367827458365870e-02,6.041830663176282756e-03,8.911787216423498054e-03,6.863421732762998474e-03,1.420633847750244275e-02,6.373813307790097103e-03,-3.692736736287294871e-03,-7.847849571502290428e-03,-4.243098047262444661e-03,-3.165577036525187536e-03,-2.133096236689273340e-04,4.933956487337633548e-03,8.140627140665527943e-04,6.694971295000025358e-04,-4.906552031442077896e-03,3.124525607047920137e-04,2.647702645668286239e-03,-7.609813960347787398e-04,5.523826550142727290e-03,-7.279759168536645807e-03,-4.802352760394565205e-03,-1.436711740017567081e-02,-7.908016513008334081e-03,5.303472685700208467e-04,-6.480563426708846157e-03,-1.149570859711118720e-02,-4.261539464395822964e-03,-2.887534632814115973e-03,4.093459911545346830e-03,-5.489073836805924596e-03,6.169145251276491812e-03,-2.304821689871699129e-03,-7.823015839837266575e-03,-6.300532568761136459e-03,-1.254135193801820744e-02,-3.116179270240592228e-03
-4.067235422111213812e-04,-7.034379697795397311e-03,1.524926236446018726e-02,3.542854546156228544e-03,-4.790445566965587266e-19,-3.622633938034970115e-04,3.636080753944488739e-03,-1.014825553546433966e-02,5.576162421378653283e-03,-1.173773743781966056e-03,1.750874667346199705e-03,-1.430055147784442711e-02,2.758765201131408665e-03,-6.623054463462153818e-04,-8.706565198084415501e-04,4.825644130635859362e-03,3.314191222723784046e-03,3.135595128101755467e-04,-8.069406504269734798e-03,-2.744687136138099053e-03,3.888665920142186753e-03,-5.650777887410259916e-03,2.637449003826525945e-03,2.504835463105787186e-03,-1.100548744782932874e-02,-5.008434194873725639e-03,-3.130867319289775894e-03,-1.388843247399892088e-03,-1.499650011516672973e-03,-1.452435966374083197e-02,2.791012318810335603e-03,1.730080963606508114e-03,1.995798477604507175e-03,-1.355308627159111309e-02,-1.214272857381072657e-02,-1.405231738915453318e-02,4.464221817323245529e-03,-8.273819126797440568e-03,-2.550262804344739006e-03,4.719309025090778938e-03,4.668995161393000096e-03,1.281299176112641464e-05,-1.689455941007235451e-02,-1.181832862205790813e-02,-1.619294980649206225e-02,-2.859077583538071829e-03,-3.333380470592224847e-03,-1.407547959091248746e-02,1.901177378306881686e-03,-6.706756792972277600e-04,1.570288981023307273e-03,-1.142064138940021567e-02,1.248334424049433837e-03,-4.693933827214560699e-03,-4.002113586822232151e-03,-1.063971831011253574e-02,7.905603857847793431e-03,1.203833135333434202e-02,-3.562078659478144609e-03,-8.873782597035521913e-03,4.730235061532134591e-03,5.010620803741929266e-03,1.174188124920646191e-02,1.680511871031072774e-03,8.032243492854976991e-03,6.730647026881576150e-03,3.167924183981763332e-03,-1.170932268988257412e-03,4.381674518308171021e-03,-1.050340750028197837e-02,-8.446598803471799116e-04,-8.795492813629641332e-03,2.373670029798013049e-03,-7.071605291625939448e-03,3.243899425074216452e-03,6.271728132118458386e-03,1.081674406631930735e-03,-3.927018639029149043e-03,-1.469859513931555742e-02,-4.405637589448461837e-03,4.563308706986360375e-03,-4.680012761463396564e-03,-9.925420417976073793e-04,2.870932279405386065e-03,8.364253727678579164e-03,1.718464791843498816e-03,3.871015332457082049e-03,-7.849413092810866160e-03,-2.537607505814177752e-04,-3.605775873269032039e-05,4.307425319946735914e-04,-4.029971341942609024e-03,1.320417476052389728e-03,-6.888530513117581758e-03,-6.463418737598211963e-03,-3.299365675880302530e-03,3.117636517555041811e-03,-7.810500936999238350e-04,3.264266937363391376e-03,-8.497696213617272204e-03,-7.806971492324219809e-03,-1.698493381883729031e-02,-1.026986038492535419e-02,-8.624171567860994259e-03,-3.721076086569520894e-03,-6.200358627893620342e-03,-6.596586343955087271e-03,3.104296744683015218e-03,-8.297574992839874819e-03,-4.908943742229910159e-03,4.089935715242232900e-03,-1.041486225093151731e-02,-1.095181972056716302e-02,-2.094816103794686600e-03,-1.361605065846905292e-03,2.541266777581970091e-03
1.332974036329916817e-02,1.106145537687078673e-03,1.560699337398466571e-02,3.988153941355278807e-03,-3.622633938035017820e-04,-2.843340777278107005e-19,1.276337739317242106e-02,-3.433574221790825290e-03,7.767793244248833232e-03,-3.999302888272192498e-03,1.064793259048800629e-02,-1.191819419205727634e-02,-5.776883150113001908e-03,3.262320062381850530e-03,9.399298115672628101e-03,1.402468084118806569e-03,-1.852962817305986443e-03,8.048222695827554271e-03,-3.225731148396845070e-03,7.869743060211835742e-03,1.824573736562915601e-03,-2.030813220937216241e-03,5.838143263681889322e-03,-8.382050009826610710e-04,4.991834832582156545e-03,1.241001863651087968e-03,1.024743871756572493e-02,4.451464897906836152e-03,2.252543933135198531e-03,4.482457448341192752e-03,9.886927866664826925e-03,1.135066974414447247e-02,1.033531843786379169e-03,-1.383941702618053660e-03,-1.847653659800859577e-02,2.297498343687051289e-03,4.791327296333212048e-03,-3.027765097999898531e-03,7.792200872450914459e-03,4.122050811502716086e-03,8.662986107734535826e-03,9.764567424624785025e-03,-8.517022478102499392e-03,-7.964362255564407314e-03,-4.207921746594952411e-03,9.670364595984776157e-03,7.332319830496637943e-04,-5.025745682382854081e-03,6.920855017803330053e-03,1.111961023889588944e-03,3.495203978958911009e-03,4.184490885466404103e-03,4.823677581816581197e-03,4.849432617180975472e-03,3.744972156595775467e-05,-1.109875161799429508e-03,9.680680222279689981e-03,-1.049274701492549158e-03,3.033453476419289627e-03,-1.052299189310168699e-02,1.217091204148806026e-02,2.243329787653588689e-03,-4.579976925772504155e-03,2.627661133470150399e-04,1.852188297610864610e-03,-9.589477402567398584e-03,7.011039051930669994e-03,4.905519708965399087e-03,1.500030982906935643e-02,-1.062766100247568464e-02,-1.345902750683448078e-04,-3.171790222172160729e-03,5.328756628869304318e-03,2.193447541845611193e-03,3.592576288105146180e-03,1.138227665670011116e-02,-3.325057169436995870e-03,4.538733667143069611e-04,-5.274528202386595879e-03,4.066189709656662429e-04,1.037451034079544046e-02,6.180444371235998754e-03,7.636073281812741712e-03,6.890869133800132419e-03,7.562849001059065990e-03,-9.938139067032711327e-04,1.265795408235438841e-03,2.119782842546758667e-03,9.750103966068346395e-03,6.122463907313065688e-03,3.905765884252952388e-03,7.402664138035684217e-03,-3.939293243855055901e-03,-1.012173867054696596e-03,1.024074032480161607e-03,-6.091220304175115272e-03,2.237023635018942254e-03,3.022256966553779796e-03,1.855012154214133934e-03,-7.806267054008856829e-03,-1.346839742060302811e-02,-8.598410722890678648e-03,1.752122984441239085e-03,1.150039109089405834e-02,1.018645734985580004e-02,9.180566248710768373e-03,-1.200754716542746202e-03,1.454695446433593164e-02,1.137937720339943226e-02,9.494510429219652284e-03,7.806575077762298830e-03,-6.050915992978480934e-04,1.430091337672388403e-03,6.398583750816111762e-03,-9.486692385402633113e-03,3.961991760432629836e-03
1.403436937592184020e-02,1.529745665950156194e-02,1.543270597994339174e-02,8.613760379663954608e-03,3.636080753944490908e-03,1.276337739317241239e-02,-5.419856217272738637e-19,1.471387644493873589e-02,3.384494094804608652e-03,2.498425709561789398e-03,1.313747551436899100e-02,2.798734117454325550e-03,-1.048159792740942925e-02,4.891045534483553885e-03,8.768583881617789122e-03,6.073292748833048621e-03,-3.472659627553914118e-03,7.044493096004304095e-03,-1.907188364787121282e-03,1.309798486669454948e-02,1.109809377253972648e-02,-2.448501725163528681e-03,1.092714635578512835e-03,-1.707806564103389515e-03,-6.835790057021652599e-03,9.357142847232426293e-04,8.142793860616627175e-03,2.354519963084715072e-03,3.666893376996480103e-03,-1.615431921071122656e-03,3.862314258347331747e-03,-2.871441561480649919e-04,1.332081357093233172e-02,-5.484325900576890803e-03,-7.202579236553194320e-03,-8.856826704120987145e-04,5.860179338326937729e-03,-1.817576953006919257e-03,5.661502589120693749e-03,7.367224943483564187e-03,9.604207426833684738e-03,1.173994627755327314e-02,2.066659404324811683e-03,-2.465226629840460652e-03,2.931460454949985119e-03,1.417684554953673598e-02,5.030309126265378530e-03,4.505829965712337612e-03,6.880246118708669215e-03,-7.711212028787151757e-04,-8.123844534491740654e-03,-7.324895374346216022e-03,-2.731699450624157539e-03,-2.936339802527282092e-03,-1.204162511448025191e-02,-1.726580325965183793e-03,1.044742030005653324e-03,-5.387876425339348588e-03,-2.073909407569224546e-04,2.507523881768666113e-03,8.392916716330169058e-03,1.014957808125237573e-02,5.684530908062938349e-03,8.527918220230898405e-03,6.328025267965214397e-03,1.341760677242792230e-02,-1.202114940880391397e-03,6.748316347613464786e-03,1.315942702572807203e-02,1.349525814789914215e-03,3.969065620947975249e-03,-3.668636260119856937e-03,3.527687692698809174e-03,7.846892423672731723e-03,5.083283899201681937e-03,1.581552994917177074e-02,6.052689770716063004e-04,4.551039585094897658e-03,-6.103501421203243182e-03,-3.343032327236444660e-03,5.689554788899028881e-03,1.899328999357071095e-03,-5.085099859687297955e-03,1.745874728521034421e-03,1.112701739478611299e-02,-3.641466400640536692e-03,3.124159205161467293e-03,-8.597047701581124815e-03,3.734476035577104659e-03,6.170678183434503018e-04,1.302549483938221855e-02,8.146343379465509696e-03,5.224631225632420280e-03,2.068911776627502426e-03,-5.479148410658028724e-04,2.510523664728250490e-04,5.820349427087201377e-03,1.069889979627723425e-03,2.686104439204656073e-03,-3.147386275174928697e-03,-1.227319504834834245e-03,-1.642448659563724295e-03,6.602954999672272333e-03,9.852892863376790447e-03,8.816908596991895192e-03,-3.305495571019443843e-03,-9.151222753809554362e-04,2.824424602395298432e-03,6.676380082545755809e-03,3.199432113495994604e-03,7.681608686495775516e-03,-9.388036198592065312e-03,-2.965745619118411586e-03,-3.850747462824819552e-03,-7.564108865771839579e-03,-4.269798173841413483e-03
8.225317390531065170e-03,1.131108727870356462e-03,2.749288525386498101e-03,-9.650184881870398773e-03,-1.014825553546433792e-02,-3.433574221790827025e-03,1.471387644493873589e-02,-1.586399763652219050e-19,4.183991252168216615e-03,-3.874306073562882452e-03,1.075963004712050981e-02,-8.758975036296707400e-03,-5.916723236725823440e-03,4.824031975666454204e-03,3.939966575655434386e-03,-8.367970251262350952e-04,-3.162068357376887715e-03,6.525638763019602634e-03,5.087030393402866904e-03,1.423329669731367673e-02,1.674608921828014269e-02,-9.669711262407737137e-03,-2.344153443604436032e-03,-5.266875500284252248e-03,-2.257978875516501206e-03,-6.580540641532017787e-05,-1.792650593301058255e-03,6.485190382809453459e-03,1.213313889989980215e-02,-1.325777389074508927e-04,-7.595855857432951344e-04,6.075496055371221171e-03,-1.326922310345478133e-02,4.540934630992891560e-03,-6.960348222902795062e-03,4.393083561450917759e-03,4.009831621492619680e-03,-2.165191262045323712e-03,1.206534766038952662e-02,1.070812046113262667e-02,8.355129932169790344e-03,1.028492349827658803e-02,-8.875929916556155042e-03,4.182099549906870793e-03,9.598216979766904453e-03,3.351180057444018770e-03,-2.668764559000478404e-04,1.172051656895943712e-02,1.025161369508396404e-02,1.321106323970955374e-03,-2.266990994232100272e-03,3.463670641271170136e-03,5.838467706115283394e-03,-8.207098675412383484e-03,7.155847756794876668e-04,3.452059004517111455e-03,1.239218584481030158e-02,1.510109111827735717e-02,4.968517086882662075e-03,-6.683665227434051719e-03,-8.057205571321250301e-03,3.253466850122934718e-03,-1.145694084643262417e-02,-8.616340574379207501e-04,6.517937716926059007e-03,-2.868425745354936159e-03,2.625548084119951574e-03,6.459166024888949101e-03,1.671153485626976007e-02,-8.381722490181762672e-03,5.508080538795923076e-03,-4.729410206872616991e-03,2.289025561888700586e-03,-5.688555514381608141e-04,2.065482153344434801e-03,5.790503326629324946e-03,1.249521281496520329e-02,1.218977462445412947e-02,6.491825998582414353e-03,-2.945451959955083712e-03,-5.706212912636693217e-04,-7.657496367740527880e-04,-8.624288833151132205e-03,1.232771551210711967e-03,-1.955464072763371357e-03,1.669918598348031765e-03,9.708786536848715287e-03,3.393724630265750920e-03,8.390057496670282403e-03,9.836036289432994323e-03,4.599068493901223298e-03,6.237797568525015046e-03,5.912962792967778151e-03,6.286503755797099094e-03,4.769898052873830160e-03,-9.105829852724188316e-04,1.012984102779970405e-02,2.923989646499476885e-03,7.716122592415690894e-03,-2.617946557992250831e-03,-1.327600288888945821e-04,-5.798918214686789308e-03,5.425257935804494829e-03,3.866435618000356282e-03,6.351303265220493120e-03,9.188948901308804235e-04,8.119690673354589688e-03,1.492147283812536411e-02,-8.339371145357505483e-06,1.001246790685967128e-02,1.098829477303194663e-02,-5.602496310900978785e-03,9.375236384519789606e-03,7.262145114994441285e-03,5.333004366805640245e-03,1.224987391464768885e-02
5.936091989882882371e-03,3.997859063824427822e-03,7.730232350647423499e-03,1.745288170941482978e-03,5.576162421378656753e-03,7.767793244248829762e-03,3.384494094804612122e-03,4.183991252168219217e-03,5.978396356611664566e-19,4.927314508676018320e-03,7.258801825742197331e-03,3.458558789200382594e-03,-6.328457194931464205e-04,1.763744774361369764e-03,1.092022717027469822e-02,2.955255987113630800e-04,-1.306937940656836827e-02,3.645509091894099437e-03,-5.026707663369069795e-03,-5.460189534943999529e-03,1.508695971295933441e-03,2.671873552889434712e-03,-6.717387256154768414e-03,-4.629614718518036513e-03,-2.188877587580398930e-03,3.021923414230416171e-03,2.058902295345454297e-03,-1.773738344475847334e-03,8.098858284532041386e-04,7.020059571901776305e-03,-2.520558462088736199e-03,1.175183033318286802e-02,-1.454747795883067508e-03,-2.297810135815098274e-03,-7.398563736403095982e-03,3.818411532308078546e-03,7.108581804486591160e-03,6.053274508262646361e-03,5.112602914405564233e-03,9.401702771239531936e-03,5.973553884190546670e-03,5.339896181221605656e-03,4.565162868684410208e-04,2.929879828582442058e-04,-4.802286266333979405e-03,1.199783135294341108e-03,6.536279411071424170e-03,1.364865356262220291e-03,-5.252905087817982474e-04,-6.793412481902932031e-03,-3.271834630528395061e-03,-3.796234160105232784e-04,1.130837142234627059e-03,1.502575782351948551e-03,6.698967853129603536e-03,-7.486075341203409297e-04,-2.761740293565205073e-03,9.817742811118164784e-03,-1.068776984527263114e-03,-6.477394180111751935e-05,-6.708112958722302517e-03,1.542686393320175185e-03,3.494118645406051570e-03,7.563019024107637579e-03,-1.209758771981153062e-03,1.191024592174997569e-03,1.820288391122615399e-05,-1.074387303730222395e-03,6.580107441141255439e-03,4.620608984192949367e-03,3.800324907641503946e-03,4.488180443774256526e-03,-2.915883903504657565e-03,4.609411803516705319e-04,3.792644635040205714e-04,9.632729953066882390e-04,-5.480104050070482014e-03,4.828478975909592484e-04,-8.247128406060814584e-03,-2.374567544640274891e-03,-2.847643948630949363e-03,-5.978319462834691747e-04,2.523225957507003190e-04,-1.245306716203687996e-03,-2.172764228551414545e-03,-8.649994407596832413e-03,-6.397813202291463552e-03,8.749754698327547910e-04,2.300459699383430867e-03,4.356213159682085535e-03,2.351587098795446685e-03,-1.393020728528925577e-04,-1.228057541812604177e-03,1.838479724876304448e-03,5.092723772514378376e-03,1.142609161334722304e-02,7.452545657922189475e-04,5.345293289125781569e-03,1.361086967329484809e-04,1.434098081983303363e-03,3.407077538898915185e-03,-1.119071518617612958e-04,-6.619068847836648197e-04,4.678459760044920493e-03,9.153241683946038154e-03,2.627362852710085541e-03,1.083739459189211624e-03,8.382195386923781480e-03,6.431464059889405518e-03,4.937212809365945643e-03,1.264465809422995416e-03,-3.466992526762766990e-03,5.397560507637709677e-03,1.404813031726330312e-03,-1.006459095804579200e-02,1.051925811786175516e-02
-1.536078328032686006e-02,-7.232021602830260472e-04,2.023063775874352904e-03,3.535351812632900586e-04,-1.173773743781958683e-03,-3.999302888272198570e-03,2.498425709561785061e-03,-3.874306073562884187e-03,4.927314508676014851e-03,5.899813184898221184e-19,-3.024196457339543235e-04,-4.305062959302745004e-03,-8.652509125004256146e-03,4.532108601604122392e-03,2.874706425788791254e-03,1.383744583397092907e-02,6.278157665606107912e-03,6.166223200433255253e-03,-1.572268913174469131e-03,3.041051732941849484e-03,3.338377932932568883e-03,-2.629642076254727536e-03,-2.492721405942189411e-03,5.490170090658122448e-03,-3.742117591251087252e-03,8.109808179189636687e-04,4.631203624271383254e-03,4.651669481007098504e-04,-5.534075207476235256e-03,-6.152653604907059454e-03,-2.148741087283428334e-03,1.404614927227491004e-02,-3.902623190736823934e-03,8.598443457738223078e-03,-6.244662038441914365e-03,-8.035027339109136963e-04,-1.544512913806419044e-03,-9.156941957873993704e-03,-9.889794743204404631e-03,1.295628638353765738e-02,5.806099698063670565e-03,4.164010203343651052e-04,-7.954235779389265404e-03,7.488094694627724958e-04,-9.134956948940415461e-03,-3.115012503665006306e-03,2.956682084150284370e-03,-1.212729384886923785e-02,-1.612250817922581628e-03,-4.826288076019596626e-03,2.232382847836531653e-03,1.294571676777580161e-03,4.895669809231822239e-03,-2.054827349821917483e-03,-3.096419999223240169e-04,-2.483844547794378677e-03,-2.114084450665414290e-03,-2.008868798077084045e-03,-1.078507186353368577e-02,-4.863484232633479270e-04,-5.059321096817117128e-03,1.783413229821277429e-03,-6.996583236573711805e-03,-1.658727356664217939e-03,7.972247351792907319e-04,8.219101890026281332e-03,2.136755209332462987e-03,-2.800262076820893373e-03,7.407846484494991050e-03,4.401880177875253531e-04,2.661351077184562512e-04,-2.695616055457459009e-03,1.381240597800806194e-03,7.436373112269547420e-03,4.761530131621956319e-03,7.211582692064791127e-04,-1.019427719909832102e-03,3.165857443639525509e-03,-4.317226648354758299e-03,-3.669991111493698874e-04,2.365975548081103268e-03,-4.194658068999397647e-04,1.442336910173299151e-03,-6.320523584797236877e-04,4.809971898597547625e-03,5.795456258548816950e-04,-3.026745792294489520e-03,-1.451048619197122316e-03,-2.406206997704593564e-03,8.720996089841056426e-04,-4.693017042249844097e-03,3.894191173510933891e-03,-1.334040833106088443e-04,8.084259267084949532e-03,-4.043296577134527711e-03,-3.571992182725652713e-03,-3.732026322646378198e-03,-1.700968558428502843e-03,4.928319912185820384e-04,-8.330627557145893827e-03,-3.988535284780897298e-03,-1.503491422261359241e-02,1.460396621219493471e-03,-2.319536935720856782e-03,1.979690910949065841e-03,-3.734561514071575196e-03,-1.166998020748722178e-02,-3.825056859000705925e-03,3.414804323554522601e-03,-1.511367919547526670e-03,4.973198691519421441e-03,-4.108231242864149313e-03,2.980945451581992756e-03,1.590137410117828300e-03,-3.984628445381045020e-03,-7.941469419887863673e-03
3.706986525073830557e-03,6.773511868167801826e-03,-3.493208403029333248e-04,7.309195327028891916e-03,1.750874667346198838e-03,1.064793259048800803e-02,1.313747551436899447e-02,1.075963004712050461e-02,7.258801825742200800e-03,-3.024196457339521551e-04,-1.193755234426211561e-19,1.306492511839088284e-03,-9.018176527068062082e-04,2.547148615280342247e-03,1.196029537519901348e-02,4.425288733579821332e-03,-3.208368817906772329e-03,-3.083721182400510699e-03,1.620559788958781181e-02,1.024742089176047637e-02,1.623719085408537044e-02,-4.426671349129811077e-03,-5.557968494071064379e-03,5.715647682856627929e-03,-4.681217028341584825e-03,-7.333363035208310954e-04,2.754620695963396447e-03,5.451810851942968938e-03,-9.118032103719191095e-03,1.879352093797727330e-03,8.209101937912922572e-04,6.682736761784982202e-04,-2.509114088821718432e-03,1.397873996147088252e-02,-1.893197230728362393e-02,5.606668901023775103e-03,1.391369482674768149e-02,5.274666432658813194e-03,7.205221979393842437e-03,9.277622748791639062e-03,4.351519792372105302e-03,-5.832474893208259778e-03,3.221589059444031691e-03,-4.403125509611287118e-03,3.630634853835342912e-03,-4.600417862850480176e-03,6.424964359367877492e-04,7.668072741680920408e-03,1.645264191082484312e-02,3.891310118493836959e-04,-9.568690653431483756e-03,2.120355941666586704e-03,2.618370362726142164e-03,-3.479725970760996247e-03,2.070481032222652382e-03,-4.620656377047573614e-03,7.779346937002815099e-03,4.591150893535936653e-03,-2.742255174064361749e-03,-7.790318701784300880e-03,-5.333728431546058690e-04,-6.877306604799918177e-03,-1.248733189915712805e-02,9.347797882940212617e-04,9.607720429894661901e-04,-7.080347433193410686e-03,7.537141448794819690e-03,-9.402577755559097562e-04,1.293362980181818681e-02,-8.515069393748729912e-03,-5.180031931978448280e-03,-5.662788880279552572e-03,5.109659605151229377e-03,-1.637953864628502627e-03,-9.430827841311283793e-03,-5.331176275646085788e-03,9.152286774045770984e-03,7.123715435436908834e-03,1.321310965938388843e-02,-7.464810362076679945e-03,-9.670223460909253832e-03,-7.717979555166875824e-03,-8.034660305244786804e-03,5.493555270572670832e-03,3.350610732875887107e-03,2.385784654077730080e-03,-5.586838619921711407e-04,-3.826626723476352684e-03,-1.440060452767106050e-02,8.442509019241994234e-03,-1.207900985521948890e-02,-1.064263329519527304e-03,-2.505663477925213281e-03,2.312598203169945188e-03,3.486948347175396201e-03,1.375053180510948242e-02,1.081122942105767690e-02,-1.677561892394241125e-03,1.047990120533852203e-02,-2.102390648304948775e-03,5.538819948630009996e-04,-2.048163371319101575e-02,-1.266212522594493961e-02,5.956997882066604987e-03,1.205144305074157957e-02,6.308291158144132063e-03,7.031353475882095617e-03,-7.811618266260530324e-04,-2.734970851036291114e-03,3.142083038296737685e-03,-1.993403131668380554e-03,1.079006867014056618e-02,-1.380157600636286713e-03,1.989215816906848497e-03,7.607485664137833038e-03,7.029782694606233687e-03
4.818893053698636124e-04,-4.896048545626464216e-03,-1.224456324603627987e-02,-1.219229647146374655e-02,-1.430055147784443231e-02,-1.191819419205728155e-02,2.798734117454328152e-03,-8.758975036296714339e-03,3.458558789200385196e-03,-4.305062959302740667e-03,1.306492511839090018e-03,-3.731601856239554443e-19,-6.523662784261100023e-03,-2.858676763186656332e-03,-2.919292518589315568e-03,6.295463143909322233e-03,-1.345007549856828532e-03,-5.869235775840498173e-03,-1.774620872169406982e-03,1.615865111043811265e-03,1.575508505157498587e-02,4.516312354232955226e-05,1.149222045821358517e-03,-2.766256129563321366e-03,-7.002905936137997223e-04,-1.724967926975301633e-03,-1.336116045592562925e-02,1.584858607672894396e-03,7.158231356084763380e-03,-6.298278400494783207e-03,-1.948307205813084274e-03,4.325319278419680752e-03,-1.618946161489258004e-02,-2.260278999610654781e-05,-6.476763598846451558e-03,-6.245601945210337014e-03,1.968706062605426240e-03,-4.866651716406460680e-03,4.008041261015282686e-03,6.010212424377275528e-03,3.353098313817723646e-03,-2.194702000358466493e-03,-1.338441436801549381e-02,7.569740781159919017e-03,1.059253812421361365e-02,-6.235860675511105573e-03,-2.318815277023698364e-03,-6.150935997801572006e-03,9.084342988017270887e-03,-4.179972405751852804e-03,-1.185683865498701750e-02,-8.656315693464134570e-03,-3.170316375524841104e-03,-1.043850800117105543e-02,-8.749151019120144854e-03,-3.365068036219419096e-03,6.275355335867951329e-03,-2.053447045477707449e-03,3.303897872881546641e-03,-3.351740924736729653e-03,1.516123826066156748e-03,8.651551861533109122e-04,-7.338032004919070768e-03,3.658824520585621243e-03,4.356306699040165924e-03,-4.931220761837013661e-03,3.498403769430750640e-03,7.927416107879687234e-04,5.885846113463861703e-03,-1.332494233408876988e-02,-4.969145966893526514e-04,-9.538138431366863929e-03,-4.437580150383007259e-04,2.128609014512631604e-03,-8.281046303189865815e-03,-7.832075760971217437e-03,8.262382470801753892e-03,8.359959953865240406e-05,7.773686522557741140e-03,5.667960926901540429e-03,-2.830926851990802229e-03,2.070018966223685555e-03,-2.553332389001037716e-03,5.312786577316434139e-03,-2.757017718380794149e-03,3.494439519303456365e-03,7.952671349679312982e-03,9.296817789029290444e-05,5.390120195158732905e-03,7.766911141483747935e-03,1.722898610879578310e-04,-1.039439564033442683e-02,2.545205653636619693e-04,6.454530077421793792e-03,7.624087695459406087e-03,3.288024015391022726e-03,5.846507585297735544e-03,-1.605460032661654591e-03,2.871657046469321128e-03,-9.082724649895460717e-03,-5.370781205838364401e-03,-1.338656065523594237e-02,-1.648843144839194988e-03,-3.821389552983223137e-03,-6.618984407712552587e-03,-3.920873909561855587e-03,3.915507724602881531e-03,-6.660951292238633924e-04,-9.942140039850291822e-03,-2.077592909029177086e-03,-3.132529198256036370e-03,1.915889893133148648e-03,-2.897419505134722281e-03,2.974315343016831030e-03,2.397223823931128595e-03,1.675051919432638198e-03
-7.704750082295792370e-03,-9.450862422532861976e-03,-3.589379789923635364e-03,-7.800458573030735407e-03,2.758765201131406497e-03,-5.776883150113001908e-03,-1.048159792740943445e-02,-5.916723236725823440e-03,-6.328457194931429511e-04,-8.652509125004256146e-03,-9.018176527068051240e-04,-6.523662784261091349e-03,4.712096392001070687e-19,-5.047478141375441076e-03,-1.819754269321879067e-03,-9.921557321254692238e-03,-3.632624815021324831e-03,-1.924739257915109372e-02,-7.097831143843134211e-03,-1.892588140199888413e-02,1.050649654277814420e-02,-9.401248071526434151e-04,3.990919068862902250e-03,5.509077480704830353e-03,1.656941138127783833e-03,-4.689602727017268616e-03,-7.278083692908113127e-03,-6.802585679134046624e-03,-1.102226963652282524e-03,-9.733259058823846149e-03,-1.279314972624584316e-02,-2.485447584227985871e-03,-1.830029622897854508e-02,-1.165006097658229101e-02,-2.076034560251280650e-02,-9.672193771477849422e-03,7.058868297523338692e-04,-6.553441893331521731e-03,3.395513562260407247e-03,-2.654329732952268733e-03,-4.811595268614174414e-04,-3.565159026110044718e-03,-8.003179892358555994e-03,8.938185691438376573e-03,-1.323817210593407866e-03,-3.397119727792802680e-03,2.119982004072584574e-03,7.325931875381015007e-04,9.955308552877378814e-04,7.616426560904453018e-04,-7.174965560414199583e-03,-7.204275418230130651e-03,-4.118490064598119213e-03,-7.887711870234060535e-04,-1.899635263521117249e-03,-1.646293919781509352e-02,7.546740579040577337e-03,5.307620361261139799e-04,-2.327926474268235055e-03,-1.448798178156388700e-02,5.764188030128096149e-03,-1.250610491205914054e-02,-3.671549908949292215e-04,-2.453581337661706573e-03,-8.313538673855371333e-03,-1.149320252048736946e-02,3.015007641589375047e-03,-4.501970386555129156e-03,1.587741485673652055e-03,-2.084344936591426417e-02,-9.094503920895485177e-03,-1.413322509074667332e-02,-2.597724378835052344e-03,-1.617808210260153479e-02,-2.241051834421665945e-02,-1.278755626518534791e-02,-7.856782844173570979e-03,-1.438285217418066100e-02,-4.518203045283625090e-04,2.539340806135335742e-04,-4.709485887725720424e-03,-3.363925390015185327e-03,3.457178942212922688e-03,1.080409542382360609e-02,3.215391002218261334e-03,9.640103741896645373e-03,1.454244687611087362e-03,-2.000030190940686736e-03,-6.783909136843884607e-03,3.194086670182064852e-03,-8.206742108388063658e-03,-2.245816667487556678e-02,-7.817306968352213947e-03,-4.635145448613847696e-03,3.605871644257121686e-03,-1.033635698186000096e-02,-4.609541685298833291e-03,-4.669037587311527550e-03,1.801206622358445019e-03,-7.001246941794436740e-03,-6.645969678135451274e-03,-1.582861903062453279e-02,-5.076349816062154449e-03,2.008277845676881106e-03,-1.048788000198300381e-02,-2.130453942606666540e-02,-3.814686951323850717e-03,-2.023755382434215717e-03,-1.046960787384397171e-02,1.951214329224400072e-03,-6.054509327918540865e-03,6.717259574401450613e-03,-6.887606445298638351e-03,-1.099424049068343720e-02,-6.515023569069465156e-03,2.060082403990773966e-03
-5.376412732985716945e-03,6.323386028357248258e-03,3.290809873052858315e-03,1.353812066989030019e-03,-6.623054463462111534e-04,3.262320062381846627e-03,4.891045534483551283e-03,4.824031975666453337e-03,1.763744774361365644e-03,4.532108601604123259e-03,2.547148615280345717e-03,-2.858676763186659801e-03,-5.047478141375443678e-03,5.140718780064780257e-19,9.272464051947522032e-03,7.299070992417167059e-03,-7.316595573196430814e-05,-1.786980282680788578e-03,1.654531821898725177e-03,-1.053445448747452814e-02,1.233847090264776972e-02,-1.553454604146751843e-03,6.700302455295370843e-04,1.026893624142163897e-02,-1.918104512824130720e-03,-8.392941291914250701e-03,-4.359513426015756282e-03,9.161947522450526564e-04,-4.048238249779512188e-03,-4.796856081377614232e-03,-3.104564032815493139e-03,1.847009233092751414e-03,-7.188290131295758945e-03,-2.833696277539142841e-04,-2.247024485117993936e-02,4.322751460898879503e-03,9.533819446905938272e-03,-8.381684575641739493e-03,5.982918777069590362e-03,3.872599637299821863e-03,4.381680239337415114e-03,2.610476079821727816e-04,-5.500290187474785389e-03,-7.220128460886213011e-03,1.638602221013692661e-03,1.580972804306796445e-03,6.466267454894163505e-03,-1.653030710860267996e-03,5.837246313082327352e-03,5.175437551866302402e-03,2.024184158180450561e-03,3.127087998292066816e-03,2.415273986624028469e-03,-1.569396961462119280e-02,1.724664177964980744e-03,-4.292891004950941634e-03,1.839597576795855630e-02,-3.797676758374981566e-03,3.699674473019091796e-04,-1.053077963618429674e-02,-5.508062728940930387e-03,-1.315752500774633460e-03,1.145017410348217121e-03,1.027294129386365461e-02,1.323445119149713666e-03,-3.290450273467703229e-03,6.174619977838621820e-03,3.743609320822831581e-03,-1.027368334218422760e-03,-1.012327067457154464e-02,-1.355355558892851718e-02,-1.503235575145850378e-02,9.014647792090185741e-03,9.436972570926018336e-04,-6.875597997301778272e-03,-2.086140590468967340e-03,1.700496383888502059e-03,-1.063983815966788871e-02,1.343904788278049755e-03,8.622332863462661527e-04,-5.311218323824662760e-03,-2.209566464428414177e-03,2.483478495093988710e-03,9.701717812864801838e-03,8.269857062253183760e-04,4.239287305005006064e-03,-2.948292345282535129e-04,2.792228037609900335e-03,4.616670128319205757e-03,7.166466770763124140e-03,-6.975352356819973509e-03,-1.100769331478335458e-02,-4.331220526277883461e-03,8.221285988239379269e-03,1.268399495039480851e-02,-2.129843626929527577e-03,7.444084249896802154e-03,-2.427321884250705289e-03,5.791971283283264826e-03,-1.105037666425313057e-03,-1.266691309923328491e-02,-1.841147197339794428e-02,-8.065740727275156827e-03,5.706092420559756573e-03,6.332860393727096117e-03,-1.425969921070917691e-03,2.558187767927308509e-03,4.657066672602284269e-03,-8.529839176775284512e-03,9.134432248259022336e-03,-3.022814355142967521e-03,7.138102282297368109e-04,-3.343355751708309426e-03,2.805226996575635023e-03,1.709501523582403898e-02,1.184373040938327057e-02
-5.592374309431914770e-04,-3.480099802272540455e-03,1.838851597328888463e-03,-4.230788473721519560e-03,-8.706565198084393817e-04,9.399298115672628101e-03,8.768583881617790857e-03,3.939966575655434386e-03,1.092022717027470516e-02,2.874706425788789085e-03,1.196029537519900654e-02,-2.919292518589317736e-03,-1.819754269321877116e-03,9.272464051947520297e-03,1.144079147499751229e-18,-1.709475131713552188e-03,-1.881403348163954853e-02,1.414239143134251621e-02,7.044544034359893209e-03,4.765376946144033767e-03,1.346645420352266280e-03,4.042368410518422384e-03,-8.269526351258792152e-03,2.050532163006017847e-03,-7.910379285234562033e-03,1.523434054145770059e-04,1.466252925664051406e-03,-2.408639784387948436e-03,-4.143705273364955803e-03,-7.956525953137002366e-04,-1.153694207149841364e-03,5.015340647179655428e-03,5.863921707644362616e-04,-8.668425435394994799e-04,-3.733655110090022822e-03,6.069036660451273407e-03,4.905784527185800062e-03,8.093183219207461532e-03,7.584149642612291603e-03,6.385588221307409232e-03,8.027841131606044608e-03,-3.114739450484765859e-04,1.000945098106238674e-03,2.762324464363439007e-04,-3.751314687654726948e-03,-7.443781533875926115e-03,-4.993333178411191176e-03,2.944854154702199189e-03,6.450480100986996299e-03,-8.149096965490317673e-03,-9.795271438521513732e-03,-1.282962416186536961e-02,-9.934729054533871992e-03,-9.203406796503514967e-03,-4.526179886232326206e-03,1.528306498237572836e-03,-1.066431631370161077e-03,3.497733512234597886e-03,-8.407809773100231865e-03,-1.005492730180052377e-02,-1.392174103629043730e-02,-1.015530336443907014e-02,-1.089974466485374265e-02,-9.334677513156745821e-03,-6.973453065105329231e-04,3.849513189001952697e-03,-1.329557987757763911e-03,-8.265974205946619718e-03,7.725537507165836440e-03,-1.471313471332030831e-03,5.433250377252318505e-03,-4.938105008862739894e-04,-1.049368903447977369e-02,1.618852082093791452e-03,-6.541398334760921592e-03,2.329711082088535556e-03,3.985665233414285510e-03,9.077199026325460246e-03,-6.419703890287368694e-03,5.220618343345856741e-04,-4.848242886260061002e-03,1.760055927131424103e-03,-3.367729496339462014e-03,-6.929246943177594202e-03,-3.543933740153323159e-04,-3.069680388483779845e-03,-6.147446024261605732e-04,-1.854373319511255867e-03,-5.259454910768126060e-03,-3.072721537138481743e-03,-5.520259583608128420e-03,1.940274410257669495e-04,-1.864672257977715306e-03,6.055152801356514410e-03,1.404058739390335979e-03,1.125865121810488284e-02,1.276700495021244018e-03,3.206238559812846830e-04,2.395458174098713360e-03,-7.508320223717257144e-03,-5.756554376972360110e-03,-6.887833639912049020e-03,-5.550746694830795830e-03,3.749598431864404301e-03,2.128136777843135478e-03,-3.093303090841166558e-03,2.056722963200733126e-03,3.229714194904061489e-03,4.520634515990104747e-03,-3.204603260423451346e-03,1.021236075709481238e-03,-7.144093490422256422e-03,6.416763441720410924e-03,-3.351156738251389374e-03,-8.840016527149909681e-03,9.116791804142872907e-03
1.523128677132370469e-03,1.253750088167021257e-02,3.553291389777030185e-03,1.199142134903515011e-02,4.825644130635863699e-03,1.402468084118800714e-03,6.073292748833048621e-03,-8.367970251262372636e-04,2.955255987113691515e-04,1.383744583397093081e-02,4.425288733579827403e-03,6.295463143909326570e-03,-9.921557321254702647e-03,7.299070992417161854e-03,-1.709475131713546550e-03,4.275896817661257215e-20,3.961220227756149549e-03,3.578988279572275014e-03,8.722304610232298888e-04,-1.288724291959130602e-02,1.218202378197291193e-02,-3.291655035128234624e-03,2.396506762105209305e-03,-2.145126568819284880e-03,-3.811869739464634338e-03,1.739448756150046432e-04,-7.968628410736814521e-03,-8.516395410889427905e-03,-3.176612518418662698e-04,2.194011169439295111e-04,7.808147907829889045e-03,1.704929650461219602e-03,5.837824187833169295e-03,1.509045624469162322e-02,-1.138695406878243929e-02,-4.145902761145753117e-03,-1.187530533968599381e-04,3.028385691008020526e-03,-7.643885754612163991e-05,2.225411553069656968e-03,-4.009932235686524023e-04,-6.065688521939014213e-04,-1.760690334289352361e-05,8.892372181345992860e-03,3.050522543450139880e-03,-4.337752534478924935e-03,5.044013275023144852e-03,-9.789348758641588585e-04,1.642800421322837112e-03,-5.361544045731398041e-03,-7.990763679293242869e-03,-7.132206544830193423e-03,-3.690771780248625501e-03,1.754089390624750770e-03,-6.923795721071455966e-03,-4.807472536077527989e-03,8.820931673122707484e-03,9.110511963261714273e-04,6.450848131527499307e-03,6.007703515727939175e-03,6.016550387913953413e-03,4.687503981919792853e-03,5.392370525091354574e-03,5.309628493723663779e-03,2.652113324008033290e-03,-9.482360805107207906e-04,3.204492771945373700e-03,2.248325899158284957e-03,-1.887415871388998427e-03,-1.809603510038984044e-03,-8.330676229148917256e-03,-1.473790331971954045e-03,-1.342071539998311060e-03,-2.909675454905768024e-04,-9.253756501504905446e-03,-5.170316084799329338e-04,-1.791363922543834971e-03,2.823983187761253989e-03,-4.207421800575109928e-04,-5.486568033897716926e-03,4.160772587212630165e-03,-3.123429182350916100e-03,3.166345673504682677e-03,1.451017413147239268e-03,-2.626488082026228431e-03,-7.143390692171931212e-03,3.529487275803636429e-05,2.115436838614779234e-03,8.000817040013258677e-03,1.207277773032141080e-02,4.976327410851884639e-03,7.547375630608060826e-03,5.236035366879049704e-03,2.152523225523134826e-03,7.189032701180948087e-03,1.272333169783156429e-02,-1.123794536846246719e-03,-8.957841322409046750e-03,-1.428508044042540222e-03,-4.505693555342998001e-03,-3.995063205148420907e-03,-1.266122850533344529e-02,-7.758265294851296456e-03,6.915772546655290197e-03,8.905600181402659882e-03,-1.246026202134913399e-02,-9.212040716137133434e-04,-2.335473208971721674e-03,-5.743817645127019533e-03,3.014622920709154105e-03,-6.580581165483901165e-03,1.098463385351901300e-02,-3.895949121272756707e-04,-2.376541770082648067e-03,-5.081457380872418834e-03,4.482537285007220929e-03
-1.479948663805346308e-02,1.089071137201376265e-02,1.633444765881440254e-03,1.166357861564810625e-02,3.314191222723785780e-03,-1.852962817305984274e-03,-3.472659627553914118e-03,-3.162068357376889450e-03,-1.306937940656837174e-02,6.278157665606113116e-03,-3.208368817906774931e-03,-1.345007549856834603e-03,-3.632624815021323963e-03,-7.316595573196474182e-05,-1.881403348163954853e-02,3.961220227756150417e-03,-3.033644380716612557e-19,-6.686657251492047170e-04,-1.216443236917784561e-02,-9.822247544622662169e-03,-6.848950928626935247e-03,9.084739559398041439e-03,5.963742338297470941e-03,4.761415812823293660e-03,3.910656122500234984e-03,1.270493680341139124e-02,1.176062603998205558e-02,-4.253793179987844578e-04,-1.363104775510630418e-02,4.138300819105577774e-03,3.011468611437701903e-03,-8.852232645851207393e-03,6.488033397734223849e-03,5.530457553085992711e-03,-6.201225584601894117e-03,6.273732131369648413e-03,-1.452918103481950531e-02,-4.177382978044522424e-03,-5.745835658748710446e-03,2.766615871489920640e-03,-7.485801220070207110e-03,-7.713080395234088275e-03,-5.348416414453680510e-04,6.850033675045143211e-03,-4.937008555430628248e-03,-9.372481112628185205e-04,2.218327383041678209e-03,-1.502224825284626496e-02,-5.063437649447992406e-03,3.107805233972662801e-03,-1.166960217781567132e-02,-2.146892043863022140e-02,-4.443542025811870848e-03,4.716420238665001638e-03,-1.845014569577937968e-02,-7.171137927454657515e-03,-2.716722272297729043e-03,-4.957052018410076401e-03,-4.732373696861781609e-03,3.824026181299694776e-03,1.667079523250999083e-03,9.145129228819281336e-03,5.370218248491275687e-03,1.097001081420065360e-03,-7.634624231751315632e-04,6.608596924281328125e-04,-1.318344396148024220e-02,-1.051063785651183344e-02,1.823675448208102005e-03,3.618269895602526515e-03,7.778727568499310165e-04,2.849927608664926115e-04,-1.104279082571511458e-02,5.680426941979881822e-03,1.060926343372669070e-02,1.943107399497523945e-03,-5.730670671045986347e-03,-4.630399213752500395e-03,-1.238017687269403651e-02,4.241366425501808153e-03,7.975975395603726592e-03,-2.600696489857769796e-03,6.913143540349204683e-03,9.858517550530097873e-03,1.273157891614472292e-02,-6.214711358448735037e-04,-9.580388449784975335e-03,2.600655526512236915e-05,5.486684038178180588e-03,-3.762703108069215523e-03,4.691417308001504319e-03,7.410962313635050328e-03,4.429281615904410996e-03,7.727860379693826318e-03,-4.835646878325158132e-03,-8.116145601911642013e-03,-5.669952127366632670e-03,-5.471682088232857066e-03,-1.621894068410957568e-02,-1.322249968220378866e-02,-3.605669886333033591e-04,-2.985153310431980841e-03,3.438105176156753141e-03,2.260468283301691854e-03,9.763921437875564859e-04,-6.590380434770892748e-03,-1.785568101065409044e-02,-5.282209331835267113e-03,1.363492588961385523e-03,-4.134310958906943848e-03,-9.240708192201321086e-03,1.910833722729352946e-03,-6.251823688972393128e-03,-8.119309652524643595e-03,-1.835854224738073248e-02,-6.517939436868191300e-03
7.776775107558629198e-03,4.531796652225065017e-03,2.972376741503770375e-03,1.254349744932086591e-02,3.135595128101712099e-04,8.048222695827556006e-03,7.044493096004306697e-03,6.525638763019595695e-03,3.645509091894102039e-03,6.166223200433250048e-03,-3.083721182400510265e-03,-5.869235775840503377e-03,-1.924739257915109372e-02,-1.786980282680788144e-03,1.414239143134251794e-02,3.578988279572275014e-03,-6.686657251492042833e-04,7.558111734072617430e-19,1.514599567235370373e-03,-2.557149029418231620e-03,6.723795810106678213e-03,5.673114258982269592e-03,4.558912291168656927e-03,4.767940213272960082e-03,-3.349068248595855023e-03,2.742840834650180862e-03,4.995214819183362194e-03,3.924748260779725544e-03,5.441299278487935973e-03,-1.112182636795110494e-02,3.968107818931843576e-03,5.297461261299884344e-03,5.604930381336512002e-03,-3.763266246704459299e-03,2.829443248019722877e-03,8.969653549492549727e-03,9.049094115986878670e-03,2.643800183858409803e-03,6.071651203102733374e-03,5.901595772256907659e-03,7.184770918218193365e-03,3.707015326954207768e-03,1.227353542855984248e-02,6.150494965547558847e-03,1.402978204716464478e-02,5.341659064900410037e-03,-9.955924885656037768e-04,3.476013406479580917e-03,9.191394252392254965e-03,8.141771887921228634e-03,-1.553524639112309827e-02,-9.118340094046795477e-04,-4.198189268088813042e-03,7.681502518775821554e-04,3.622979458476953147e-03,1.173358272197743898e-02,1.172928035522044455e-03,-8.235188274485473470e-03,1.074091623714294730e-02,5.402596659404797219e-03,4.692664094961616732e-03,4.065931873650589432e-03,2.071085050908808272e-03,1.689835982640389145e-02,8.536806855605922131e-03,3.222911610642377120e-03,8.580532372816675191e-03,1.422433312501755753e-02,8.731521200685501971e-03,4.225178137215369716e-03,-1.478871840167690979e-02,-9.661682123296468083e-03,5.856859456821449442e-03,6.705434734003635350e-03,4.278300563172409386e-03,-1.279062708090962465e-03,3.441057589391026406e-03,4.487994428269208649e-03,1.460052944428671604e-02,1.005281016343035315e-02,7.443461547650075637e-04,1.348270916395044594e-02,4.414018898645514360e-03,1.481949744240331976e-02,1.614290764626603175e-02,5.504608940560888099e-03,1.153062609427383395e-03,-1.112627885795344773e-03,4.077516551986546528e-03,8.373320958267697900e-03,6.254606752549117001e-03,-1.719196189053647395e-03,1.894347451614689440e-02,2.200086455803266366e-02,9.651817180839971505e-03,1.105032382723306755e-02,1.983201198941115379e-02,-4.452536817773406277e-03,1.302173799470867678e-02,1.240529377810280914e-02,1.079289519130992650e-02,4.699228983761198977e-03,4.841464345340886280e-03,7.636622296295090054e-03,-1.452080614260205758e-03,-7.456750099591331546e-03,1.369052670562594977e-03,-4.731409364216836166e-04,5.380300037687526897e-03,-4.741927620642051588e-05,-1.152082273398315031e-02,5.201506944664023926e-03,5.954617962460930988e-03,9.051262910611847234e-03,-7.843838096486872857e-03,-1.721945214112257858e-02
-6.981234476667822625e-03,6.461965783938527878e-03,6.219229155761367075e-03,4.628189149210686776e-03,-8.069406504269734798e-03,-3.225731148396848540e-03,-1.907188364787124318e-03,5.087030393402859965e-03,-5.026707663369068928e-03,-1.572268913174466962e-03,1.620559788958781181e-02,-1.774620872169407199e-03,-7.097831143843136813e-03,1.654531821898721274e-03,7.044544034359891474e-03,8.722304610232264194e-04,-1.216443236917784040e-02,1.514599567235369506e-03,-5.587830054280144089e-20,1.923031057923456789e-03,1.138313602156201636e-02,-7.664969753705726946e-04,3.105719161906900921e-03,3.687457780025956040e-03,-1.115993543118225240e-02,1.580698480356448367e-03,-2.079212219275101536e-03,-1.232061841598359152e-03,-1.204899794422663317e-02,-1.361786188167680468e-03,-4.764200468963527418e-03,-1.037719872661039405e-02,5.552400477934304850e-04,-2.449741427660133072e-03,-1.795046643157494938e-03,-3.596938217332699191e-03,6.136043997711931181e-03,8.370354170561224855e-03,9.721718705236222571e-03,-1.180522397554827855e-03,-1.168573787313152614e-03,1.004545572026417470e-02,5.430335089425946359e-03,1.027370780756889021e-02,1.283267618746382951e-03,-3.620603539184743744e-03,2.267759741394868075e-03,9.855408286036374671e-03,7.168040228513796949e-03,-5.959991404581128568e-04,-7.451426536846316243e-03,-2.543288377573190914e-04,-5.495635677664010427e-03,-5.851586914152375959e-03,1.160346398972173995e-02,8.903942650938634351e-03,5.625900031528109635e-03,-6.528515313313598516e-04,-2.668405969528188197e-03,-9.175929333208090663e-03,8.703354050726030966e-03,3.188925834943958162e-03,-9.106463861719817435e-03,2.378680935491301598e-04,-5.863013576937059143e-03,-5.068672419905845099e-03,-8.712292089980163898e-03,-3.671724783537388959e-03,8.355721367463778138e-03,-5.225060117655815767e-03,1.745353207165560583e-03,-4.567056788519431067e-03,3.753441821535368969e-03,-2.466408305511487431e-03,-2.714642574897863439e-03,3.681652711922595630e-03,9.027883963613321516e-03,6.352155003465499543e-03,4.695971260853239355e-03,-5.116821151069103103e-03,-6.265511287355174028e-04,8.085199758546286058e-05,1.081172772512115077e-03,-8.160076511672225905e-03,2.296564861222672241e-03,1.862456648559062539e-04,-7.251692036398525373e-03,1.441569406699711418e-03,6.518747521708123834e-03,-3.037038280474225159e-03,7.785519892302409338e-03,-7.766500291889336452e-04,2.511714865825413062e-03,1.312987112114086512e-03,8.843307973481937759e-04,4.837740906725564519e-03,1.013941400967465975e-02,-1.162786938091764366e-02,4.059557481390077202e-03,9.474820643025978935e-04,1.720063136204660371e-03,-2.615868981917812176e-03,4.099958268098153821e-03,8.503127317769317017e-03,1.801276022268949364e-03,-7.537300589438042896e-03,5.447090406228081473e-03,1.334480187193999752e-03,-1.590545099092792458e-02,-2.356837009404267377e-03,-1.010307416601737354e-02,1.251097562295980237e-04,4.045261475679202273e-03,-5.241622379780105402e-03,-2.753307015492204718e-04,-4.014188602606499554e-03
1.003856838103915627e-02,7.235448386442740881e-03,-1.459647455024550055e-03,3.979595899874455167e-03,-2.744687136138094716e-03,7.869743060211834007e-03,1.309798486669454948e-02,1.423329669731368194e-02,-5.460189534944002131e-03,3.041051732941846449e-03,1.024742089176047810e-02,1.615865111043808880e-03,-1.892588140199889107e-02,-1.053445448747452814e-02,4.765376946144038103e-03,-1.288724291959129908e-02,-9.822247544622665638e-03,-2.557149029418234656e-03,1.923031057923459824e-03,-2.256711889831983126e-19,1.830265807082953264e-02,-3.264806454082784699e-03,-5.900163494901907585e-03,-5.349929240355346966e-04,-8.233816595887498771e-03,-7.812869324387346909e-04,-4.687248862976453948e-03,5.478524581051007029e-03,4.792009630591575337e-03,1.936452612476069826e-03,2.091531760860011920e-03,-3.449956172855605380e-03,-3.142763446284971458e-03,-8.672650836121269941e-03,-1.082562460496137510e-02,-5.054697622537886181e-03,-7.879918696932280628e-04,-4.877582628182142686e-03,4.534089364828358323e-03,-8.280596924783651877e-03,-5.395378448136861974e-03,1.427594223316921984e-02,5.771380786663251466e-03,7.200970811637307824e-03,1.185892528746901667e-02,3.745822574673447064e-03,8.356367269216621180e-03,5.514239809991156385e-03,7.439335844849813417e-03,5.309422613016315500e-04,-6.944574474560512647e-04,-1.092281954653596477e-03,1.588559601537842996e-03,-6.409417406525616707e-03,-2.556922678086456877e-03,9.994169039118275255e-03,1.147550757032267821e-03,1.156815247336479349e-02,8.500703652014444250e-03,-7.246397351510596579e-03,6.854064060963678540e-03,-2.188796713011942688e-03,-6.968068572456181421e-04,4.935454619850013040e-03,-3.164262698522509517e-03,-3.175969598254514345e-03,-4.388024913505567115e-03,5.446182997752829075e-03,1.246921567249795366e-02,-6.521015194406744840e-03,-9.726280809259904223e-03,-8.897823843737997021e-03,-2.367741448311456998e-03,-1.687377681108189614e-02,-8.504632979160230144e-03,-8.344784183818631379e-03,-1.734967307390611682e-03,1.672306717944430608e-03,-2.057853432866075995e-03,-6.206183032644559464e-03,-1.876395742602770395e-02,3.737793796026543831e-03,-1.197714166838532990e-02,-6.202309886572826038e-03,-1.874446854224237017e-03,-4.092109567749588686e-04,5.430004880685167581e-03,4.296600172556627219e-03,2.636898419583614747e-03,5.282368990896976410e-03,2.223876896919824500e-04,-1.034141409672365182e-02,2.037256401167440722e-03,2.465442286883733763e-03,-1.745847225596555349e-04,-4.256764818483762224e-03,1.176669510767643090e-02,-7.009561467079664099e-03,9.324334591021619760e-04,1.293696130698587365e-03,7.149455395226346315e-03,-8.319791725606290322e-03,6.369022405061989384e-03,1.239925969364410151e-02,1.023924617421128301e-02,-1.194911148970766689e-02,-1.213192651821936793e-03,3.648184724375333650e-03,-4.380080866509763853e-03,1.225390199907591335e-02,3.012803180249799991e-03,-3.446704865738964979e-03,2.184027803057857903e-03,-5.892748254512468996e-03,-7.069034867465610709e-04,5.303547170386588988e-03
5.408235160173836820e-03,1.985744437342084126e-02,1.096690584835429208e-02,1.199311269416926048e-02,3.888665920142186753e-03,1.824573736562917336e-03,1.109809377253972301e-02,1.674608921828013922e-02,1.508695971295937778e-03,3.338377932932570184e-03,1.623719085408537044e-02,1.575508505157498240e-02,1.050649654277814940e-02,1.233847090264777319e-02,1.346645420352268882e-03,1.218202378197291019e-02,-6.848950928626928308e-03,6.723795810106672141e-03,1.138313602156200768e-02,1.830265807082953264e-02,8.158438843208196148e-19,-9.038232314981335929e-04,-1.228933961644746234e-03,-2.418980804307096014e-03,-8.934246540616292906e-03,9.387681136650793262e-03,5.623011836461931645e-03,1.190717385558341321e-02,5.400686296926691596e-03,1.405856987611224605e-03,1.979412216556591941e-05,-1.153431235838730737e-02,1.498702491500085790e-02,-3.677503504223210862e-03,-2.284224249854346044e-03,-1.053914058805558059e-02,-3.321341084026212427e-03,6.159045087635426838e-03,6.576314197928262092e-03,-3.813959115076789690e-03,3.460241852084840371e-03,1.198209684570404956e-02,1.483357063798597213e-02,1.842639870182731510e-02,2.582261289470123844e-02,1.546272741169058863e-04,9.342750793055534797e-03,5.841203680306696067e-03,3.319584252376101344e-03,2.935503025252103257e-03,-3.283069219556737812e-03,2.464940496770287766e-03,5.101432859151880210e-03,5.144995138769510069e-03,-8.059529194416790998e-03,4.364796715549472753e-03,3.035485862386229361e-03,1.841603764023537829e-03,-4.712616068269114738e-04,-7.221719942570930736e-05,5.683312031887491171e-03,3.145022936163676015e-03,-1.128593811588228871e-02,2.140741903680172184e-03,-7.787606635214765205e-03,1.321725247946810809e-04,-6.148214298017927112e-03,-1.373320830738195171e-03,4.048378478226605931e-03,5.821601519913714544e-03,1.249425019549115293e-02,7.046195536285422209e-03,6.296459300769286123e-03,-5.233324450188408389e-04,-1.783458218462969421e-03,4.514100777062686823e-03,7.194974145656387807e-03,4.447814839510230017e-03,-1.312186688504072066e-02,-1.824076831499731044e-04,9.419288193220870346e-04,-6.103122953575511409e-04,-4.851959373753888388e-03,-3.164528892781883797e-03,3.732482017607562184e-03,-1.667973123052582992e-03,6.085243652640771016e-03,-8.001032356620151748e-03,1.653361829312580524e-03,-2.549728128481663914e-03,1.231997192989448160e-02,8.273265858282960461e-03,3.189026235399541193e-03,-4.239387673912813417e-03,1.394744531121296528e-03,-1.769066129105614782e-03,4.082606198728416444e-03,-1.432359825468907874e-02,-5.927896967923998971e-03,4.809174818069962727e-03,3.526842571361919233e-03,6.755019310247741687e-03,6.843712308305917313e-03,1.589056305196888397e-02,1.635739957834549119e-02,-7.586256449440441016e-03,-7.518196893780541325e-04,9.418260123669289566e-03,-7.774585558531328048e-04,5.359130552924830197e-03,1.408392809859196262e-03,9.141567894739381292e-03,-5.481288635989059119e-03,1.843255759276590626e-03,5.759084659589767605e-03,1.477433457446296512e-02
4.884648425607677688e-04,9.536854846671797767e-05,-2.518555248096085789e-03,1.198051685207892052e-03,-5.650777887410260783e-03,-2.030813220937216241e-03,-2.448501725163527380e-03,-9.669711262407740607e-03,2.671873552889433411e-03,-2.629642076254734041e-03,-4.426671349129811944e-03,4.516312354232738385e-05,-9.401248071526464509e-04,-1.553454604146748807e-03,4.042368410518422384e-03,-3.291655035128233757e-03,9.084739559398044909e-03,5.673114258982268725e-03,-7.664969753705726946e-04,-3.264806454082790771e-03,-9.038232314981361950e-04,-7.410956307848437123e-19,5.431689937981928201e-03,-1.015040640823523625e-03,1.716791933975446091e-03,1.773022365379748125e-03,-5.928548371851272494e-03,-4.568959486783269117e-03,1.023778340242983021e-03,8.148965150028766521e-03,9.431190226527556147e-03,3.710020956249724441e-03,-2.922103573999318676e-03,3.234411578747555492e-03,-5.564460301742237339e-03,-6.098059958931154392e-03,4.512508921727850439e-03,-1.445015693015147019e-03,7.955828972588511322e-03,-6.327096083972231881e-03,-5.275101230086329251e-04,-6.359740242351022074e-03,-9.601379072705681916e-03,-1.393532805336768470e-03,-1.014705839397537362e-02,-1.026993923015079649e-02,-6.290520960720502250e-03,-3.084424600980142928e-04,-1.584947031008705331e-03,4.977740140404944211e-03,-5.050495347237672975e-03,-4.057695839984407603e-03,-8.939902786259249987e-03,-2.402691171590233543e-03,8.183576894392963902e-03,-1.112072873197725992e-02,6.816545749107180176e-03,-9.274025937131263192e-05,5.044066257025332269e-03,-1.108989552109467674e-02,-1.580247926050158767e-03,-8.440734642411532040e-03,-1.661903322556765317e-02,-9.183186659150115866e-03,-1.180243146133525857e-02,-1.775180170084484504e-02,7.579157037225850435e-04,-1.856789846833605158e-03,-3.754455158919220523e-03,-1.176504612046137474e-02,-7.665969118450088188e-03,-1.711898387686609097e-02,-7.477529696638413742e-04,-5.774277222819455997e-03,-1.775880548094087991e-03,-3.910023881571913877e-04,-7.071626542368321389e-07,-8.409496972955092173e-03,-8.643388031796775395e-03,-8.676081042067818397e-04,6.574551113190502637e-04,-7.222563508523333238e-03,3.500400832605932849e-03,-3.671663500730893738e-04,4.026244748342054994e-03,6.655222176246694890e-03,5.796767650772291502e-03,8.455554796979868060e-03,5.315841001625131422e-03,1.062489932319138700e-02,-6.378581452614234641e-03,-5.225472715905145164e-03,4.431591637117885708e-03,1.018973029937250870e-03,-1.459510810793207981e-03,2.786808114202362404e-03,4.959051318548346465e-03,-2.162321597811390703e-04,5.918434557468460477e-03,-1.311685326699902742e-03,-5.886672691735300028e-05,-1.163460460698881316e-02,-5.738473837935992306e-03,2.825295859461406361e-03,-5.959894805021738809e-03,-2.739354167146300541e-03,5.592898638971691323e-03,1.487359101790011046e-02,2.605430332110833785e-03,-1.674991796397103019e-03,-9.605234158669673575e-03,-1.516298617787461070e-03,9.218283722560442761e-03,4.465290706459051212e-03,7.191903352831275839e-03,1.745413973081966046e-03
3.682743000012181269e-04,1.264168590876103490e-02,-4.963557507672676852e-03,1.006488475880665430e-02,2.637449003826523777e-03,5.838143263681887588e-03,1.092714635578511100e-03,-2.344153443604432563e-03,-6.717387256154770149e-03,-2.492721405942191146e-03,-5.557968494071062644e-03,1.149222045821362203e-03,3.990919068862900515e-03,6.700302455295336149e-04,-8.269526351258786948e-03,2.396506762105201933e-03,5.963742338297467471e-03,4.558912291168665601e-03,3.105719161906899187e-03,-5.900163494901905850e-03,-1.228933961644746668e-03,5.431689937981935140e-03,1.273542525178042174e-18,-5.381412851761826349e-03,1.314407344737585775e-03,9.110803768869142616e-03,-6.869555345520836180e-03,-1.451709237874557190e-02,-6.925688557618111564e-03,7.780036523984037306e-04,1.184810818156169752e-02,-3.385427916198108581e-03,1.157751370544163501e-02,-4.780088769615439999e-04,-3.068221026916996726e-03,-3.296900650532406767e-03,-3.708803993284573181e-03,-9.718267248614635007e-03,1.171732759000026179e-02,-1.038675827705774594e-02,-4.890812246374068306e-03,-1.112967627692645206e-02,-9.252957206514573693e-04,-1.165851270584310553e-02,-9.238934512170880655e-04,-1.175139132994041519e-02,-5.154283810523693256e-03,3.595937058650546664e-03,-5.347668447565484540e-04,-6.411301029861597028e-03,-1.196449204796493256e-02,-1.075844190453903101e-02,-4.523080004153966736e-03,5.297757661433967653e-03,-1.486446839279186721e-03,-4.308751066849757921e-03,5.964726101422028817e-03,-2.723768115266391593e-03,-5.454365681460655348e-03,6.183401820050102304e-04,2.196281345856726519e-03,1.193962405396221818e-03,-1.045164959593463533e-02,-6.893187071696897823e-03,-9.597688394233937215e-03,-1.202088771534164796e-02,-1.507871890581124336e-02,-2.910832656505605871e-03,6.935172794204978557e-03,-1.311873392428508818e-03,-1.490499312433085644e-03,-7.651684084395418348e-03,-1.247267981411151298e-02,4.182101760560760773e-03,1.277380350007913980e-03,-2.634084749973371678e-03,6.774014086203028299e-03,3.911135883211179151e-03,-7.299483578147836736e-03,1.386929248230291123e-02,8.580941578409870263e-03,-6.051504755274362667e-04,-3.317523091041387276e-03,5.692473013278950833e-04,2.247542540489861143e-03,2.274216856021513133e-03,-9.864222018629251534e-03,-3.417810437827797747e-03,-5.456270418897297102e-03,-3.745475822422135882e-03,-2.727033097923718414e-03,1.012487879436846372e-02,6.144979481643719765e-03,3.596400517511586566e-03,-6.905237553056267283e-03,1.905008964575646488e-03,7.620750372310806237e-03,-1.284248643094989054e-02,-2.785209701066317274e-03,-1.060693571397745838e-02,-1.764128965788736318e-03,-1.312626437277391277e-02,-1.205644020384964016e-02,3.418224580028099424e-03,1.000605876999864120e-03,2.941497221438709765e-03,6.921408005145228415e-03,7.647198933305734796e-03,3.248441162081072871e-03,6.736184167962295209e-03,-2.601008602801968203e-03,8.598777479435902593e-03,7.889637244478787600e-03,8.418044897971703466e-03,9.880539900470549503e-03,8.364495128698051785e-04
2.140801772873969586e-04,7.218149866374613637e-03,7.749458320905076684e-03,1.016000067823770968e-02,2.504835463105786319e-03,-8.382050009826617215e-04,-1.707806564103387130e-03,-5.266875500284260922e-03,-4.629614718518039983e-03,5.490170090658122448e-03,5.715647682856625326e-03,-2.766256129563320933e-03,5.509077480704830353e-03,1.026893624142164070e-02,2.050532163006014812e-03,-2.145126568819287483e-03,4.761415812823295395e-03,4.767940213272955745e-03,3.687457780025954306e-03,-5.349929240355351303e-04,-2.418980804307089942e-03,-1.015040640823535768e-03,-5.381412851761829819e-03,3.962882422191212279e-19,-4.706057034982980523e-04,-5.660752426313300431e-03,1.909959930524425444e-03,-8.777094769001951569e-03,-4.996467690566167713e-03,1.141740682409865711e-02,1.612618201380104643e-02,9.236248330375795151e-04,1.480614115886364629e-03,5.651773772707318830e-03,-2.852036531124562367e-03,-2.267053782829586087e-03,4.463357418770600923e-03,-1.788860695245641196e-03,8.930432314087544468e-03,-1.037122931911586485e-02,-3.931080992396764583e-03,-2.369682092050711363e-03,-3.211900214388328442e-03,2.852464806196840924e-04,-1.693619763220349274e-03,1.427125875508665140e-03,6.795718634000904798e-03,5.766313409288995398e-03,5.442735944391242919e-04,1.741746352661437992e-03,2.724910577840796572e-03,7.530404220563617808e-03,4.291936407587017624e-04,-3.229249943243443430e-03,1.465791634980234334e-02,-2.070657712715349898e-03,1.124442196307922671e-02,-3.098555360306213050e-03,3.002944939196843140e-03,-4.683972316609938576e-03,5.728432946952531461e-03,6.960344917825793919e-04,-7.253957577991423933e-03,-6.386331617556514906e-03,-6.552535363457397816e-03,-1.077733090555641100e-02,-7.246923952360667491e-03,2.022677439173147570e-03,4.195956228548081320e-03,-6.229380076333120020e-03,7.647206299683417981e-04,-4.778895237900727781e-03,-2.649335321145575468e-03,-7.036487158395113989e-03,1.782291545566548618e-03,1.358903985849012949e-03,2.470893562275192166e-03,2.200577674863782481e-03,-1.097643634133899787e-02,-4.254154022904426194e-03,-3.673222241068209524e-03,-5.869054184621310712e-03,-3.880810051771627946e-03,-7.624193462149369584e-03,1.556617849632650199e-03,6.173674111581172776e-04,2.725409143882147767e-03,7.412710314615610779e-03,3.361854994562264633e-03,2.791117772667906730e-03,-3.569809257583326373e-04,1.683606713559997366e-03,6.183762907956243809e-03,1.641173919724175402e-03,-2.209190607454064245e-03,7.774369933926723007e-03,4.972164702626087791e-03,-3.013638147041791410e-03,2.674283358938465277e-03,-2.691645135995562356e-03,3.138712005890490885e-03,-1.012079883179897027e-02,-8.778467610064174392e-03,1.477870848898895327e-02,8.063609857341093312e-03,7.002130579678423825e-03,1.116334956125944119e-02,1.761334453079602125e-02,1.106238520057004071e-02,1.199461779382613065e-02,-2.297596199426462163e-04,9.654820838601340868e-03,1.901195131852820644e-02,9.614777510296544302e-03,6.912673831824272912e-03,1.380316326683204455e-02
-1.324878454481807910e-03,-4.950825817137000269e-03,-8.044734539284031927e-03,-9.253536157946663050e-04,-1.100548744782932700e-02,4.991834832582153075e-03,-6.835790057021658671e-03,-2.257978875516505977e-03,-2.188877587580403700e-03,-3.742117591251084650e-03,-4.681217028341583958e-03,-7.002905936138014570e-04,1.656941138127780364e-03,-1.918104512824132888e-03,-7.910379285234558563e-03,-3.811869739464625664e-03,3.910656122500233249e-03,-3.349068248595850686e-03,-1.115993543118225587e-02,-8.233816595887498771e-03,-8.934246540616294641e-03,1.716791933975440887e-03,1.314407344737589245e-03,-4.706057034983019555e-04,-3.265984885051618720e-21,4.423235649749645768e-03,1.745036099791583140e-03,-8.654194924352657387e-03,1.431002357822899577e-03,9.109724506337804617e-03,6.194656733320744180e-03,-6.046400528424212759e-03,2.971404717951152061e-03,-6.805692915045050487e-03,1.911539649669906707e-03,-7.136714314991254166e-03,-1.007950404871786436e-02,-9.505248277288920120e-03,1.151180125583190460e-03,-7.437459672492742480e-03,-5.979452801242356869e-03,-5.792482360354721596e-03,-5.702164550672988996e-03,-8.913576106138848890e-03,-6.895531129242689350e-03,-2.648639186796940704e-03,-3.140848381794574592e-03,-6.142858373858647338e-03,-8.866011845505204075e-03,-1.762145638050527895e-03,-9.766421380806227653e-03,-1.281036798781148497e-02,-8.132221999679308325e-03,-8.800282013186297089e-03,-7.190885330496458484e-03,-1.466776207199359770e-02,1.879600475290705598e-03,-2.764924155522811410e-03,-1.506854204068268106e-03,-7.245027585762521191e-03,5.046445549289429143e-03,-6.851893351763592606e-03,-1.548900210150210531e-02,-3.683325317459086243e-03,-1.421315794714033375e-02,-1.345974190302470785e-02,-9.318790499791899246e-03,-5.147515840231364596e-03,-3.967685584894754466e-03,-5.374887138446990051e-03,-7.525659533264362870e-03,-8.126737714671199153e-03,-1.310671056399812483e-02,-4.726978746734883732e-03,-5.350427102665670717e-03,-3.367841525342551469e-03,-3.125283511869531104e-03,-1.963036331217268057e-03,-8.885228336310561220e-03,4.610478989904713207e-03,-2.768532215609237693e-03,-6.211174681357182342e-03,-1.264985158803486141e-03,9.840916415861584651e-03,1.078746545245959365e-02,-5.562320544960702370e-03,6.092292974992053259e-03,-2.597856451482131145e-03,-7.258813743461914672e-03,-4.992911898947295125e-03,2.972759990669763836e-03,-6.229313636051380179e-03,3.654566655144786229e-03,-3.786270924794720404e-03,-8.831288965688462861e-03,-1.497107023029301334e-02,-2.678599316682950520e-03,-5.362835798448802559e-03,-6.251406362208927064e-03,-1.063262831277993030e-02,-7.445968889236696288e-03,-1.000322922263693903e-02,-1.928665812151111880e-02,-3.439338923267917531e-03,-1.144506620306974531e-02,-6.185009433890310826e-04,-1.016487599439643875e-02,6.246388380122310652e-04,-2.060568872724378043e-03,-5.067204375379515298e-03,-8.434359242910346999e-03,3.689780031897271426e-03,3.141133549633193939e-03,1.652568064459748612e-03,-5.729972830331750248e-04,-9.288457581669727972e-03
4.311475486337387406e-03,5.070552001489848047e-04,-4.448011004781004564e-03,-5.210144165184150099e-04,-5.008434194873723037e-03,1.241001863651091438e-03,9.357142847232395935e-04,-6.580540641532104523e-05,3.021923414230413569e-03,8.109808179189641024e-04,-7.333363035208354322e-04,-1.724967926975303802e-03,-4.689602727017268616e-03,-8.392941291914254170e-03,1.523434054145752711e-04,1.739448756150046432e-04,1.270493680341139298e-02,2.742840834650182164e-03,1.580698480356454438e-03,-7.812869324387286193e-04,9.387681136650796732e-03,1.773022365379750293e-03,9.110803768869144351e-03,-5.660752426313302166e-03,4.423235649749645768e-03,-1.217623585250136957e-20,-9.751865014946561536e-03,-2.201062061240558355e-03,3.188645600650449018e-03,8.996256998950204892e-03,7.326335710150188446e-03,5.518756558589283864e-03,1.242593996357309327e-03,1.203342014754437382e-02,5.046195768090774858e-04,-6.352833513902146970e-03,-2.278820465923737069e-03,-5.565402364834926702e-03,5.840967726174306311e-03,-3.550788379651196366e-03,1.631587392492583454e-03,2.466810616731417508e-03,3.808904214159984994e-04,4.281307019145099389e-03,8.367395934881624933e-03,-1.171421885869536501e-02,-5.414052916892521036e-03,-3.660151142552925570e-03,-4.230050060533766323e-03,-1.402275973060736073e-03,-1.235183769065502368e-02,-2.428460004749099024e-03,-1.872318644497757882e-03,-4.109193274525996253e-03,-4.642632197559439129e-03,-6.393113682446073358e-03,7.544698678631445166e-03,-4.699655153587523407e-05,4.195557244661936476e-03,-8.909416593976851942e-03,1.173842306266842557e-02,-5.347923644617853106e-03,-1.381036659158235702e-02,-2.346167554694452394e-03,-1.146117470935214232e-02,-1.966518524089019143e-02,-2.337312138197629799e-03,8.293401904936892072e-04,4.550459616736882672e-03,-9.776734588161634446e-03,-6.596676789575532662e-03,-1.171572188778569751e-02,-5.881195918871646826e-03,-1.001320505721347599e-02,2.225476455075320846e-03,3.957990721319600176e-03,1.427632895371587930e-03,-2.192695359996305916e-03,4.467657957916679884e-03,1.087755392583473514e-02,1.150276754932659127e-03,-5.836814107293222982e-03,-6.634204077511870502e-04,-3.441227200010711813e-03,-6.635140284049565861e-04,-3.010863319051790103e-03,4.413387950018404608e-03,1.851218251826763830e-03,-2.145062499244753708e-03,2.717822019803604449e-03,2.883308531607627068e-03,2.361500394471896871e-03,8.148776918061657881e-03,-2.613887885786879677e-03,-1.744086022718934750e-03,-6.768061532102017525e-03,2.614966313816516862e-03,-3.748580420156351605e-03,-2.391153663926367471e-04,-4.330905392140151425e-03,-5.594527917881860976e-03,-1.564358598692372482e-02,-1.539510651238560658e-02,-6.713277731960031781e-03,3.935741352731683684e-05,7.123470497586841324e-03,-2.521768336019730890e-03,6.575468714615984554e-03,-1.267726136698104494e-03,3.278079426910583422e-03,-3.348860745183078816e-03,5.981427488290116772e-03,9.685735968520139960e-03,1.064327254897383564e-02,-1.433353807192027252e-03,-6.019678726426896595e-03
3.828498833818466153e-03,-6.476692546280710810e-03,2.213781789471262404e-03,1.124173289876158680e-04,-3.130867319289781965e-03,1.024743871756572666e-02,8.142793860616628909e-03,-1.792650593301056521e-03,2.058902295345455599e-03,4.631203624271382387e-03,2.754620695963396447e-03,-1.336116045592563098e-02,-7.278083692908112259e-03,-4.359513426015751078e-03,1.466252925664050105e-03,-7.968628410736814521e-03,1.176062603998205731e-02,4.995214819183359592e-03,-2.079212219275098934e-03,-4.687248862976452213e-03,5.623011836461929910e-03,-5.928548371851277698e-03,-6.869555345520841384e-03,1.909959930524427613e-03,1.745036099791584007e-03,-9.751865014946559801e-03,-2.118209800780045341e-19,4.639251044370050654e-03,-7.222724321124477515e-04,2.196360579600644888e-02,1.173646418548906535e-02,7.121883965839766531e-03,-7.784504775611997621e-04,2.837207900037206233e-03,-7.592281897652852427e-03,-1.191174611628453839e-02,7.425665616767147467e-04,3.374642331161620441e-03,1.093569346227720070e-03,-2.631080489028378606e-03,5.644532013046891540e-03,6.449412298638445423e-04,5.510882521622337271e-04,-4.511925730537758722e-04,4.959073895629281283e-03,-4.795637344017237604e-03,6.121192236273206855e-03,1.721205425915084408e-03,-6.791010073573929169e-03,-3.416079050546195085e-03,-7.129875858454228638e-03,-8.097145221854212122e-04,-5.935049279580457277e-03,-3.607262525361630036e-03,-2.595803683279584648e-03,-1.286761419669291313e-02,5.874708512038482114e-03,-5.929964671540408593e-03,4.905218151472261418e-04,-9.156349592393135672e-03,2.430940538595582120e-03,-7.264122112625534360e-03,-1.041812033079918438e-02,7.729187051878352518e-03,-5.616662591070498665e-03,-7.731865518291866982e-03,3.495873232632340510e-04,-3.836139415311377431e-03,-1.551495993826841309e-03,-1.239178881134972432e-02,-1.244788210336202072e-02,-1.170867517004571881e-02,-1.092766146952830336e-03,-1.361035969008997371e-02,-1.671450256851991605e-03,-3.473790078497709238e-03,3.093505819907967774e-03,-3.928450091620107332e-04,1.894829451677610462e-04,-9.167055953706421470e-03,-8.673651054562053764e-03,-7.492320838895038734e-03,-4.006518218464417275e-03,-1.435488519532862606e-02,-2.719144469733295391e-03,-2.581664463164348895e-03,7.215541238728332253e-04,1.308944551317883787e-02,1.351735524846867098e-03,8.657446077958999564e-03,3.855716044309782757e-03,-5.537256495345444299e-03,-5.144544816543673849e-03,-2.384448980088117384e-03,1.303225689130945971e-03,-3.032277560703106230e-03,-5.629665632817078963e-03,-1.337537194273855871e-03,4.026996298754415872e-03,-3.888829868296942056e-03,-7.094490918419784839e-04,-7.376248690403583441e-03,-1.715181012601659297e-02,2.129346640236386753e-03,-7.611954172143859700e-04,3.826459179582200176e-03,-7.238200567589588366e-03,9.099021226593717853e-04,-9.151738957500233154e-03,-1.222003885054329456e-05,-4.445521754805183655e-03,2.795060117648167503e-03,1.000619319931082482e-02,-4.311102243461123907e-04,-1.086624290372669235e-02,2.204919685651048587e-03
3.449976209948326950e-03,4.804696129588652970e-03,3.598010416991586670e-03,4.028285306324971837e-03,-1.388843247399891871e-03,4.451464897906837886e-03,2.354519963084713337e-03,6.485190382809452592e-03,-1.773738344475846900e-03,4.651669481007167893e-04,5.451810851942967204e-03,1.584858607672896998e-03,-6.802585679134036216e-03,9.161947522450556922e-04,-2.408639784387951038e-03,-8.516395410889429640e-03,-4.253793179987885777e-04,3.924748260779726411e-03,-1.232061841598357851e-03,5.478524581051004427e-03,1.190717385558342015e-02,-4.568959486783264780e-03,-1.451709237874557017e-02,-8.777094769001953303e-03,-8.654194924352657387e-03,-2.201062061240557054e-03,4.639251044370047185e-03,2.420712080702765897e-19,1.127886892388483935e-02,3.915574511571694519e-03,2.853835548105290634e-03,-2.604940173747523346e-03,3.699857918684650027e-03,-5.402871158331382789e-03,-2.441485010023524294e-03,3.950047131322793718e-03,-6.186214156404582203e-04,-1.361867456927927465e-03,6.134354875243296090e-03,-7.149023786287967905e-03,-2.478464427339054435e-03,1.155051359986881271e-02,5.037181404103120708e-03,4.154361876740452451e-03,6.743333583982762114e-03,4.371832248506367369e-03,1.140010746229688440e-02,1.975713402334424926e-03,-4.036696934354983349e-03,3.227653308719266329e-03,4.664061083557066376e-03,1.861328067336214497e-03,4.378155463698250698e-04,-8.290283722442438191e-03,5.853879266125780467e-03,6.545332430274831449e-03,3.787838203981574656e-03,3.455689659272075803e-03,6.380952375225066794e-03,-1.055089703385913777e-02,3.606867971658409694e-03,-8.164364904574604800e-03,-8.161025739468185172e-03,-8.697989183714101378e-04,-1.515105435849675893e-02,-9.623773684191209293e-03,7.182027606397393786e-04,4.449717218355484470e-03,-7.693245897587481803e-04,-1.078820003476066436e-02,-8.056808928792789579e-03,-1.048265543429476032e-02,-5.656679938055081056e-03,-1.490474158156136070e-02,-2.925693271163325344e-03,1.813824639898497593e-03,9.723578972273255044e-03,-2.945851503141142663e-03,-5.485290983569994852e-03,-5.440328535492798892e-03,-1.576971750690018062e-02,-4.218381213903153217e-03,-1.376319962576696455e-02,-1.703293306009840552e-02,6.712511546204228546e-03,-1.421404662200784555e-02,1.295094944717342308e-02,-4.150494936786738691e-03,6.538910661672480903e-04,3.449840277987474210e-03,2.587330334906839772e-03,-8.098555975181592065e-03,6.174114546725686936e-03,3.000307174579075389e-03,2.276182956492321836e-03,2.365735987101783878e-03,1.258595853826217220e-02,-2.829175244064609414e-03,2.990954565504305262e-04,-2.500783671454940606e-03,-8.533473069573401480e-04,3.157981598501499038e-03,-5.159210640884467035e-03,1.752968082038881825e-02,9.288315487664951936e-03,8.047533840877130890e-03,-7.150805281505401116e-03,6.498683098249686055e-03,-2.080469118546073286e-03,9.224270138173795014e-03,-1.485552981023740334e-04,6.733074236963699014e-03,7.454363834145416243e-03,6.648943254931576757e-03,-6.974957624651277263e-05,3.995509651715791963e-04
-2.332192139766725830e-03,-2.949948092204340497e-03,-9.311785635181669789e-04,-5.100012325592590337e-03,-1.499650011516672106e-03,2.252543933135203735e-03,3.666893376996486608e-03,1.213313889989980909e-02,8.098858284532017534e-04,-5.534075207476243929e-03,-9.118032103719192830e-03,7.158231356084766850e-03,-1.102226963652287728e-03,-4.048238249779510453e-03,-4.143705273364958405e-03,-3.176612518418706066e-04,-1.363104775510630071e-02,5.441299278487935973e-03,-1.204899794422663144e-02,4.792009630591580541e-03,5.400686296926688126e-03,1.023778340242980853e-03,-6.925688557618108962e-03,-4.996467690566172050e-03,1.431002357822899794e-03,3.188645600650447283e-03,-7.222724321124516546e-04,1.127886892388483761e-02,-7.534465779984442395e-19,3.970552144741527380e-03,-9.043710636349469589e-03,6.087381395281986178e-04,-7.692270387789292181e-03,-3.881423509282009524e-03,-4.172485497352378982e-03,-2.649443395521654948e-03,-5.570624080247775153e-03,3.947250439501729519e-03,3.027682571718386464e-04,3.813168285509171453e-03,-7.236135640478125707e-03,5.377451778530677531e-03,-1.607951687298395972e-03,1.715014435570438173e-03,-8.569472759710375191e-04,1.053235011421148164e-02,4.584094983550643203e-03,-1.234821178050496057e-02,4.587696540062210712e-04,2.505492997203103952e-04,5.507469952092390250e-03,-1.908549734118606452e-03,7.900878053129160861e-03,2.515169000940055584e-03,-9.605377767518217397e-04,2.886750754454166235e-03,5.159632370195638834e-03,1.094933852042154557e-02,-1.463869984955433641e-03,3.823568479419582437e-03,-4.427570781815651745e-03,-3.428990568804650765e-03,1.658271419153721938e-03,6.096273228480090026e-03,1.246918439236443079e-04,6.825895903252228447e-03,7.175776766576441243e-03,-2.441435307584117944e-03,5.335123906147032184e-03,9.566187945758456226e-03,6.070642459375929882e-03,4.738748817321552760e-05,1.184682351537819523e-03,1.436591769422066074e-03,-2.022697369702497732e-03,2.588602660845962331e-03,5.697145230143037253e-03,2.799100383244284077e-03,6.870299143306595607e-03,5.298272644258175158e-03,1.469229015073478771e-03,4.151646996915519042e-03,5.455702886291821825e-04,5.000458919012410602e-03,-3.646986411546824028e-04,3.147645526489510973e-03,-2.769905304609244102e-03,1.561681490463701864e-03,3.843591322530062922e-03,3.713305669556315417e-04,4.417798310121909613e-03,3.277919876525538581e-03,-2.550619547343846525e-03,8.369175248023131078e-03,9.056437215603008184e-03,2.846683106926282091e-03,3.892265344543932235e-03,-1.921588120351704846e-03,-4.339244116401822123e-03,6.136621801401100085e-03,6.730820507559155501e-03,-3.469208139314335776e-03,9.927371690751850622e-03,3.617934064341138053e-05,7.958399051209239655e-04,-4.966350829603626699e-03,-1.033046603515098277e-03,1.202711619121704829e-03,-2.023602179200570611e-04,4.254190279022007463e-03,3.607396595896171943e-03,-5.275246783816633922e-03,2.615172752517416245e-03,2.333388341287752875e-03,3.036586137185400599e-03,5.984079212359330428e-03
-7.871128802316860323e-03,-5.835864324947277054e-03,-1.141035528246399020e-02,-7.354118726577662385e-03,-1.452435966374083023e-02,4.482457448341190150e-03,-1.615431921071122656e-03,-1.325777389074578316e-04,7.020059571901776305e-03,-6.152653604907062923e-03,1.879352093797725595e-03,-6.298278400494782339e-03,-9.733259058823844415e-03,-4.796856081377614232e-03,-7.956525953137002366e-04,2.194011169439338479e-04,4.138300819105577774e-03,-1.112182636795110667e-02,-1.361786188167675698e-03,1.936452612476073946e-03,1.405856987611222870e-03,8.148965150028768256e-03,7.780036523984080674e-04,1.141740682409865017e-02,9.109724506337802882e-03,8.996256998950211831e-03,2.196360579600644541e-02,3.915574511571691049e-03,3.970552144741528247e-03,-3.033934448215874339e-19,-1.824952986108736679e-03,5.636811047147862255e-03,-7.378591759738869355e-04,-3.328628887168512841e-03,1.984220858889907194e-03,-4.934882266743982615e-03,1.766983912771475556e-03,-3.485829195214471942e-03,-3.136300898981977253e-03,1.221262547679805889e-02,1.168974827279469289e-02,-9.848134656319697949e-04,-6.662745239405031689e-03,-9.197862620309665838e-03,-1.052353408980423455e-02,1.524858852975028399e-02,6.512018426748302120e-03,4.176479142640886384e-03,3.364551188027899153e-04,1.023583504986819506e-02,1.326040291645485007e-03,-8.891482781531441157e-03,2.798513624241993902e-03,3.004620438665924279e-03,7.010508111954267402e-04,-5.615966446238011833e-03,-2.823860020268395988e-03,1.498936025193749189e-03,4.075434006823898392e-03,-1.399322854716871433e-03,3.657901167977819015e-03,3.100304067844777880e-03,-3.726541469052527603e-03,1.709144888752018795e-02,8.183496217745594298e-03,4.630380646195905725e-03,4.702062537830828393e-03,4.704077252114122198e-03,1.685560891813222759e-02,4.692877018837911945e-06,-2.834998866338163566e-03,-5.439711911312159268e-03,4.770186623221330489e-03,5.138873336517460998e-03,2.091778574330513570e-03,-6.354117943268779330e-03,5.346691756109573160e-03,1.076218498729769428e-02,-1.275630355828218489e-03,6.225847630609139191e-03,9.120603045813194948e-04,5.641565049448217517e-03,6.716063493903285005e-03,1.665090255668433272e-02,1.939495991549794809e-02,5.812106396976973038e-03,6.251803568516791157e-03,1.526827850805464147e-02,-2.034488856057035250e-04,9.765358885942284836e-03,-2.976817807418339311e-03,-3.784021366327885386e-04,5.506333243404161817e-03,3.039168146554172521e-03,-2.167377879116151249e-03,-7.911950278205263573e-03,7.632260974799884995e-03,9.703736473064271048e-03,7.992119457127452864e-03,3.248117231320109353e-03,6.116928313071577986e-03,-5.636786682168696064e-03,-2.556962755565625554e-03,1.458455391335178883e-03,-3.034998650289280012e-03,1.049663145357304997e-02,-1.722429814772661813e-04,3.721316914948834265e-03,6.479735998778154288e-03,1.321874349316101011e-03,2.108082690271709421e-03,7.384398717901304726e-03,4.400134566149480585e-03,3.961637969093415382e-03,3.812652458248856104e-04,5.319423222316344360e-03
-4.220794134501004019e-03,6.421127747595888405e-03,8.861038572475100211e-03,5.888817315145610312e-03,2.791012318810338205e-03,9.886927866664825190e-03,3.862314258347332614e-03,-7.595855857433020733e-04,-2.520558462088742704e-03,-2.148741087283423130e-03,8.209101937912887878e-04,-1.948307205813081238e-03,-1.279314972624584316e-02,-3.104564032815494007e-03,-1.153694207149839196e-03,7.808147907829892514e-03,3.011468611437701903e-03,3.968107818931839240e-03,-4.764200468963523949e-03,2.091531760860019292e-03,1.979412216556635309e-05,9.431190226527557882e-03,1.184810818156169406e-02,1.612618201380104643e-02,6.194656733320745914e-03,7.326335710150185844e-03,1.173646418548906015e-02,2.853835548105298874e-03,-9.043710636349471324e-03,-1.824952986108744051e-03,1.380893242897167214e-18,-1.485884582929397971e-02,1.446410783373341946e-02,5.773456687764143974e-05,-5.957501782042114689e-03,-7.143459311139108842e-03,3.945513114240566978e-03,-5.318446318638267792e-03,-6.533498130284601246e-03,6.604273469653235487e-03,4.005075788751869675e-03,1.790807699788700674e-03,-4.733106007939844907e-03,-1.170663996431648216e-02,-1.265039771507190172e-02,1.539470413240874580e-02,1.093172256443862914e-02,6.805822931017151828e-03,4.309468993989297447e-03,6.127887902089952481e-03,4.149059456540942284e-04,-4.736090320111690719e-03,1.025610757199143901e-02,9.486731589433961692e-03,3.775065730642081317e-03,-9.364869868720379111e-04,-8.136249620966222798e-03,6.643468947293802024e-03,-4.668015384052386432e-03,2.579708495255085641e-03,-6.661505658191920962e-03,1.339442974304238219e-02,3.825734361038936066e-03,1.327348509739089896e-02,6.636714288144988927e-03,9.119266708484948664e-03,-3.459645236467039434e-03,8.900377722547735734e-04,1.409029770973518718e-02,2.624987829092777138e-03,-2.926376345478577667e-03,-1.844736982920452528e-03,4.781486095514597690e-03,7.569640973133886716e-03,1.018216329931158348e-02,1.257133816337759925e-02,9.576885544054498760e-04,1.033252386003803008e-02,-1.088186682562223423e-02,8.194419929151743054e-03,1.182963601236575527e-02,9.388847373351535963e-03,1.337365245988761386e-02,1.437898734716330437e-02,1.792082769179070140e-02,6.747970499916101407e-03,-8.209183379188848828e-03,-5.987314982488544171e-03,5.248082644824782379e-03,-4.878358780738682211e-03,8.621528284123936015e-03,1.046942681573539112e-02,4.350767668141974215e-03,3.582205310988683788e-03,-6.455363182762966640e-03,-8.784962232240341867e-03,8.151710687907135280e-04,8.183189506665352470e-04,-8.095559217306058999e-04,-1.346175599121855011e-03,3.075395000378862171e-03,-5.769353603313568009e-03,-2.580512223768039338e-03,1.025578106206829175e-02,7.778413692119235702e-03,8.288506037008275956e-03,1.099543431691521207e-03,3.314819144588399946e-03,1.209024644686772058e-02,4.282106769181243588e-04,1.316788273954532310e-02,8.256552136194493519e-03,-2.080466668768324572e-03,1.081226758479060393e-03,-5.261372672774268424e-04,1.741292879459399156e-03
5.970148931862751668e-03,5.084079117095909386e-03,6.059351185929240900e-03,4.086020081775611559e-03,1.730080963606502910e-03,1.135066974414446900e-02,-2.871441561480593541e-04,6.075496055371221171e-03,1.175183033318286455e-02,1.404614927227491178e-02,6.682736761784973528e-04,4.325319278419680752e-03,-2.485447584227988907e-03,1.847009233092752715e-03,5.015340647179658030e-03,1.704929650461216133e-03,-8.852232645851214332e-03,5.297461261299888681e-03,-1.037719872661039752e-02,-3.449956172855605380e-03,-1.153431235838730216e-02,3.710020956249724441e-03,-3.385427916198109014e-03,9.236248330375821172e-04,-6.046400528424214493e-03,5.518756558589282130e-03,7.121883965839776939e-03,-2.604940173747519443e-03,6.087381395281955820e-04,5.636811047147860521e-03,-1.485884582929396930e-02,-1.585066671043160395e-19,7.947032771385144703e-03,-2.415943098510661691e-03,3.112931931528827804e-03,1.587236179142340400e-03,-9.413671776216546092e-04,9.708743936375366715e-03,6.529307857678568611e-03,1.242282778333695520e-02,8.314192549357151546e-03,6.925041933273338654e-03,6.055209131601574021e-03,2.912852668767342348e-03,-1.193023586766638836e-03,1.282863233637801786e-03,6.900661166595897875e-04,-7.027374324031441730e-03,-9.220114718808691129e-03,-6.987445475648659463e-03,-8.874588940785197236e-03,-1.140389073661547507e-02,-1.031015176808817643e-02,-7.956842375322126237e-03,-4.461977753708076637e-03,-1.119840458875697928e-02,-1.496152659097247511e-02,5.912926298628733493e-03,-1.556337936253829324e-04,3.147213083176718818e-03,-6.878165674119254662e-03,2.881237486204138616e-05,2.715737404982377680e-03,1.894885092216443264e-03,-4.844246812568708468e-03,3.816600528253602173e-03,-5.829172357719875075e-03,3.372475146441736987e-03,6.413021062232402911e-03,9.598116658877421659e-03,6.710676714655715303e-03,5.947000913638179030e-03,-4.346233204902504380e-03,3.631369498936584499e-03,1.022250953787512667e-03,-1.370708185316322179e-04,-1.398804801658959287e-03,-4.046572684790897614e-04,-1.203285342635108252e-02,-1.295442952478773752e-03,1.095586069280314731e-03,-9.264567325714583371e-03,2.146173543173748952e-03,-3.111726724800256694e-03,2.823647553890331913e-03,-7.345422935482645230e-03,-2.583022312708119304e-03,8.786989185197721999e-04,-3.872226165080799171e-03,-1.037497181959879181e-02,1.804486918367112069e-03,2.173638915125306569e-03,1.577806017422881237e-03,1.860920832944452409e-03,5.524864258941167977e-03,9.242265472887093575e-03,3.184049811596149655e-03,-1.088719956817620071e-03,-8.813813979075935112e-03,-4.823641934709437494e-03,8.902222206612483632e-05,-6.920128291219599867e-04,-3.529931612651508559e-03,5.111580528631960371e-03,7.068025273045164085e-03,4.715882310812552144e-03,-1.307357069174236962e-02,4.463054565843763491e-04,7.829996672959546253e-03,-4.119198978244500292e-03,-6.584280883564684606e-03,-8.236269997912701313e-03,-5.426326894778539869e-03,-9.571388876461280407e-03,-9.011858180365026061e-03,-3.647917424161104113e-04
4.342536204167570142e-03,1.543503979114952199e-02,1.659107941362576158e-03,1.567160065912355515e-02,1.995798477604507175e-03,1.033531843786376567e-03,1.332081357093233172e-02,-1.326922310345478653e-02,-1.454747795883061870e-03,-3.902623190736823934e-03,-2.509114088821723203e-03,-1.618946161489258004e-02,-1.830029622897853467e-02,-7.188290131295771088e-03,5.863921707644336595e-04,5.837824187833169295e-03,6.488033397734234257e-03,5.604930381336511135e-03,5.552400477934257145e-04,-3.142763446284973193e-03,1.498702491500086310e-02,-2.922103573999319543e-03,1.157751370544163674e-02,1.480614115886368098e-03,2.971404717951153795e-03,1.242593996357301521e-03,-7.784504775611910884e-04,3.699857918684647425e-03,-7.692270387789291314e-03,-7.378591759738869355e-04,1.446410783373341946e-02,7.947032771385142969e-03,7.536069156373643921e-19,5.518880331362163716e-04,-1.077827604386542154e-02,2.941834796921425927e-03,9.443302693307458959e-03,-6.520425114804057586e-03,8.384388588421484712e-03,5.415616726796878590e-03,4.053730180238565572e-03,-4.440609943271939600e-03,-1.411457628394584968e-02,-1.185105688431317347e-02,-1.611245400056119824e-03,4.175643717153438780e-04,5.180722911132392208e-03,-1.840012815320719169e-03,6.603682958529703134e-03,-1.192462098031652276e-04,-4.407719186250099591e-03,-2.902616275889195394e-03,6.684713958615565513e-05,4.069519101733861527e-03,-6.209555779671603604e-03,-3.962564474383562831e-03,1.554915497739125987e-03,-2.011114372112847090e-03,-4.154398328860780740e-03,-8.644432776051116235e-03,-6.581177115418388075e-03,1.738109105077556560e-02,-4.820581936856929706e-03,2.110072596141964948e-04,3.639822237969921569e-03,2.222345189428575393e-03,-3.036178980969038259e-03,-3.591308854383030991e-03,3.157683696796021594e-03,-1.268709178440538890e-02,-1.388523172749103057e-02,-1.359280781070171425e-02,7.423979318411854864e-03,3.864452553929294785e-04,6.772076152072413827e-03,1.037697513186971315e-02,3.176451812031016488e-04,-7.825881976943496830e-04,-1.087024859155717293e-03,5.375102817523161672e-03,8.732062588077542029e-03,-1.944117327402641003e-04,9.377391451582027526e-03,2.061739922025256858e-03,7.212215488172888517e-03,4.390497846877818022e-03,-1.270828133170890523e-02,-6.369338393520359090e-03,9.043429994050170700e-03,3.073886517513022953e-03,2.395932466155909803e-04,9.385327376604290020e-03,1.253945229571634071e-03,3.495765954566159694e-04,2.639561704421301142e-04,5.102545592885343248e-03,6.396769364560226691e-03,-9.334856034274099934e-04,5.260628369176886809e-04,-9.232010908483034156e-03,-1.864990215177230945e-02,-2.608914393684280686e-02,-1.222767453450351871e-02,1.058630632522896374e-02,1.439978311613534720e-02,-2.210613249381127021e-03,4.621363837168522733e-03,1.167748467867356973e-03,2.932441560361629534e-03,2.079151154183356623e-03,4.574106135755312032e-03,1.519479819058903395e-03,5.178481086280536071e-04,4.621468676733952834e-03,1.552487974137315915e-03,4.510813948530504160e-04
